1.53522060377929
1.47238624576899
-1.44719309179588
-1.40953153848308
-1.35804918646771
-1.34226072152477
-1.31476254913493
1.26075270258515
-1.22758825800484
-1.19356955080196
1.14901275981012
1.11598658720823
1.01716500482077
-0.99464779535767
1.01264084893419
0.983706146514822
-0.901049910333654
-0.886153780285641
-0.829666782286844
0.806214112962178
0.745224345734111
-0.697475064326435
-0.699174700563046
-0.607170947017187
-0.608220690604436
0.540292123474997
0.541733282122587
-0.504634689810562
-0.429924178899813
0.390654019572848
0.375898814716544
0.324257478643009
0.279072783857302
-0.22074055166411
-0.185947506604074
0.147149687438982
0.131531704132794
-0.102208174675254
0.0578108243339462
-0.00970119233873792
-0.00530178220994993
-0.0654240705406197
0.088959541330222
-0.102860083471603
-0.119110024836208
-0.200609095087285
-0.270736866966544
-0.317294343209019
0.349195091168679
0.410455884138214
0.411332200158385
0.434977296912191
-0.494051131914421
0.498300004709318
-0.55999236207479
0.611367770011173
-0.638931465131943
-0.703896770300445
0.701354556912118
0.770103185567345
-0.775007277343519
0.799031451289946
-0.820162307678298
0.951374848206697
-0.959055186782382
1.00211562479755
-1.02282827835111
-1.05131687517525
1.10670436840875
-1.13637845261057
-1.16668176792292
1.21151545139418
1.21218480469583
-1.27771104353082
-1.33578874453835
1.37907224392135
1.41183484536296
1.43810903063367
1.48278207768333
-1.51424416325884
