-0.0903592047285984,0.140607203028214,0.142738352007777,-0.0350137172238964,-0.0470416714290637,-0.212331927708552,-0.204960807758349,0.236417594143065,-0.0174583599462966,0.137953518150295,0.157558236949568,0.115627308471279,-0.280030511215237,0.082240274494483,0.157925691298336,-0.176125513193023,0.148420171163862,-0.178331237546958,-0.209740544179784,-0.0924843359576789,-0.0456320900780487,0.03411903397721,0.24449933235398,-0.129468705360092,-0.175276271516536,-0.178923931159669,0.00157182492334335,0.201227572952602,0.211417253572993,0.0747154337650761,0.142317366947218,0.0822874695534434,0.133662370864826,-0.168778068579202,0.197430830619429,0.00845143967946947,-0.130126714013736,-0.186234813144571,-0.183359828785164,0.107721933036077,-0.186135223412788,0.22941576893315,-0.236443437906092,-0.0312750192881004,-0.134181266056479,-0.141310143246813,-0.160977101039905,-0.0641416539553079,0.0753580430055087,0.304125455397374,0.141600312582431,0.306703100365673,-0.304310054532624,0.0243042877103669,0.259034557527934,0.213898042250493,-0.157965382217245,-0.200106885106532,-0.127592433026535,0.279925810509987,0.0871449572273517,-0.0711247687686521,-0.165352630924154,0.0472187401415477,-0.0208591126644627,-0.0880969210360708,0.27997254038606,-0.250751051300985,-0.0208290204619514,0.00713038398702338,0.135574905931081,0.080004085268472,-0.0394304355570781,-0.171935852162185,-0.14401974637563,-0.010719214610633,-0.119391515299863,-0.0519766637803158,0.307612649934974,-0.151852887013441
-0.21148410093418,0.232904869571698,0.129728877213202,-0.253496241887769,0.0876921150367278,-0.0590122347233493,0.232526575857505,0.0447433184011301,0.0262483630551158,-0.176461226236976,0.179172749067983,-0.23419993944945,-0.143151106419282,0.0516738476588059,0.0946307721140042,0.211238605811313,0.0642617987245458,0.143198526958402,-0.248778541676681,0.201021175443864,-0.069452813974414,0.148074143764134,0.159824981668691,-0.0390671905271265,0.0716070146480603,0.187019959064306,-0.169677322905456,0.0644214744141038,-0.133497957890902,0.241423945877512,0.0203866757841394,0.20075916640655,0.260097835307337,-0.188172048852206,-0.0431727634697572,0.19160647747126,0.107623082635497,0.0953166446242312,-0.127734362715633,-0.0341414608131504,0.0478344954677686,0.124125979209018,-0.262287385526913,0.189973988455997,0.146241425253778,0.254124199337023,-0.127758651441595,0.195900242177592,-0.0691406880418178,0.0640464444028305,0.0888257636977085,0.250502458911098,0.0178650441750742,0.0918416598147216,-0.24550409822605,-0.190427047306441,0.193473818035875,0.17754187419973,0.206228958891713,-0.173716498283341,-0.0498679537412289,-0.229654584149342,0.0317641355847832,-0.18340823918911,-0.0601544952903569,0.217442895282802,0.127968984698963,-0.246677304444386,0.136967258516167,-0.102698653785648,0.236508013031374,0.0957420431783702,0.0201791236375415,-0.245330022527963,0.0804091361864346,0.227790788578588,-0.208610958595407,-0.237106406394041,0.064351165061968,-0.134936547199205
-0.0766568248004361,0.0991568428643717,-0.00578374559319498,0.0902562715119588,-0.306846689725535,-0.0531569122357881,-0.13227300799281,-0.0915037924026414,0.169803349262905,0.0845049637228953,0.0849054063934902,-0.102302131433378,-0.253621893539403,0.238703333162777,0.263475108335712,0.218870104613292,0.185843545171486,-0.27021021648727,-0.022198394705947,0.0692837327260265,0.0313948342126472,-0.129482089317644,0.139046453903707,-0.188031288978438,0.281705361294674,-0.197942036195997,0.000436027559471724,-0.207470721476586,-0.155493098431172,0.197443913459597,-0.106763623383247,0.25869528073553,0.0138284558627953,-0.0706847684128744,0.162587853455169,-0.00991207557174801,-0.227461165364813,0.00954125111064049,0.0620638695779736,-0.195028415653489,-0.0674583951532982,0.118867528487082,0.020051602377745,-0.139809710877719,0.0746182882845368,0.201309830578392,0.113168651490438,0.260288824241941,-0.220149396871301,0.219840664532739,0.00444116556113233,-0.0420286151801667,0.192089334025416,-0.273843972305512,-0.19388814325795,-0.0920217324837363,0.0921239126128492,-0.11895177372451,-0.0233887128095344,0.0209607285963101,0.0216060142570572,-0.129463167725455,0.0822639489063122,-0.0571325396275101,0.13444187516561,0.260388011609414,-0.15643740769477,-0.138151708484202,0.283350598133733,0.112074839322014,-0.200498812008866,-0.271081896784346,-0.0675138302566704,0.207423547929963,0.19466967275898,-0.163644991940128,0.260561671954539,0.0697208427970665,-0.0191421815171792,0.210659007594764
-0.200831161568597,0.234694400060634,0.0622331382634295,0.183705300896125,0.0790311471531593,0.200797715941635,-0.152044066728653,-0.28631982749203,-0.285044228138366,0.240355889896644,0.0609835402406324,0.112382290356406,-0.185295226984836,-0.288172364733789,-0.187502025065641,-0.186396643949314,-0.147691356794742,-0.137137571939622,-0.225469495323691,-0.0506870138001345,0.013260603825335,0.00794243369149818,0.0865320904451033,-0.198759498632768,0.0726539711426259,-0.203802314277312,-0.125558017790766,-0.0860773194064076,-0.191509515831745,0.0219677342707053,0.294584395130889,-0.166182753416198,-0.112575467203886,0.113287755637985,0.173930079606485,-0.177743151933433,-0.186650435170629,0.0839956885737729,0.213006437101084,-0.194606863479828,-0.0597232066980693,-0.250997849162895,-0.116364601001508,-0.262671327062201,0.285401227081211,-0.12380592101733,-0.069742991126256,0.158845438542268,0.241644919729715,0.149014967259481,0.137545042308896,0.160938619533598,-0.234283798061599,0.0198880468331577,0.184231812519897,0.0903226103720024,-0.213173811047382,-0.0187846782960106,0.055055008887344,0.0225572958008955,0.158821121314603,-0.196335364535018,0.0483597563307267,0.0382316262880833,0.12587875477782,0.126273603461024,-0.105450617941465,0.105895715876839,-0.148870802094995,0.209515511928471,0.0230355595552719,0.159532765662314,-0.0538038249548957,0.183040033079889,0.0212267420288653,-0.0196779317376624,-0.0924417225298849,0.0324485234832831,0.260489846447725,0.157054161401298
0.112020975379991,0.224453708469736,-0.149274444803523,0.200046836637421,0.0907176178192486,0.230198583542794,0.143457110647073,-0.265738232656316,0.019353464665703,-0.241790701869257,-0.252238672007083,0.17295452237433,-0.219811692827379,0.0371607385457237,0.236282030806488,0.00602670448185577,0.253964945472536,-0.102447063308806,0.0444601103957193,-0.00384538062491059,0.148695444982556,-0.0953172273371969,0.2684581263913,0.239165235002169,-0.131211162298323,0.234779473559509,-0.231373575740126,0.0498504698630274,-0.240030432665295,-0.0391725536822896,-0.116286767868567,0.00408033998909638,-0.0900570271559554,0.191747169658119,-0.0659034907791053,-0.150135182469559,-0.0918544097543076,-0.0545925988456655,0.228948490045939,0.140071663278272,-0.125263394118366,-0.16788973717004,-0.0763309906150547,0.232256125747712,-0.186739743345549,0.0763147707943883,0.157738872081202,0.137206311385198,0.0164052029924368,0.120518519800563,0.217361085581365,0.0813819562207327,0.209883266925934,-0.0277516296764124,-0.0303050791172046,0.12639841002745,0.144101268655071,0.0622351546077017,0.0993520886928027,0.0105017691990133,-0.18308550259065,-0.211260137650713,0.0100845268796126,-0.255091527009297,-0.181760463985222,-0.116704988184802,-0.224957512878853,-0.0973730576461246,0.192236305271041,0.123757942088521,0.137597754052922,0.241289964410043,0.152866954356194,0.00528814702478872,-0.114079452749615,0.221769140644088,-0.192872655797618,-0.234330374442567,-0.158302366110455,0.237461666425923
-0.262174911444973,-0.273662022461985,0.246921547796106,0.213769922619291,-0.126580264341712,0.0858955460823241,0.250369334695714,0.184898729668808,-0.26424080450384,0.00690354152958219,-0.0906558336408541,0.108697536691978,-0.267284187802047,0.152668229754744,0.270594510388175,-0.222968888263348,-0.225908656769134,-0.2508965696692,-0.0170538597465719,-0.204960987079648,-0.111161956509862,0.176121181935521,-0.270830606315628,0.275193535628582,0.175543950824664,-0.0182036905502666,0.193802251216014,0.0177658275373013,-0.165586991080832,-0.0307527918907806,0.25491282615773,0.137388010346365,0.00937974224401167,-0.113169044922493,-0.0801434848751454,-0.0437777014281289,-0.0505261231294032,0.3082343779337,-0.0385242309946445,-0.0572883178144248,0.182773982884443,0.113532232196562,0.12248709234769,-0.107325300242428,-0.116625683135546,-0.0243975987713281,0.0250034429586833,-0.130251591360066,-0.259922088988606,-0.214572577101479,0.0789357574504564,-0.033194244756784,-3.00117594320227e-06,-0.127814818712401,-0.122222292192977,-0.107009720218369,-0.140297946897418,-0.135542432665108,0.188354533955245,-0.108078735263115,0.100122936382798,-0.0397932823068208,0.111396103884529,-0.038296561824666,-0.260002326159039,0.11247991854469,-0.0690453138921436,-0.0909137851932937,0.271698096613744,0.245358690117682,0.0666122487541052,0.0858602217478097,0.128680839591349,-0.0702083322334706,-0.15687728417374,0.0528392514574496,-0.163170594487445,0.136291782823086,-0.263490445247527,-0.112553112241451
0.19822002123668,0.0756660832705401,0.0620048351227736,0.092750564619303,0.186761163505805,-0.170199651124221,0.217182384025025,0.2357413748462,0.156311941760596,0.0744411197372447,0.169878934389751,-0.0418502431510437,-0.000850226375293366,-0.136524417791199,0.212570866291261,-0.247856567596152,-0.205490963961926,0.243101340432125,-0.0372399193873863,0.238458711890861,-0.270448942781466,0.0498081739893713,0.00357139082127505,0.249836239398871,-0.0891161131440089,-0.188846622851065,-0.0381288887391128,0.168679718026396,-0.213533300913731,-0.0816867143645256,0.122817277084425,0.109798912656234,-0.126576022795459,-0.063626231342942,-0.0861041833210845,-0.0266585828802096,0.0886279781744998,-0.220203016403993,0.235630797232545,-0.103691910100653,-0.182786058033035,0.0917153718598428,0.241709804032845,-0.0983570162056023,0.0335352088204074,-0.106240962862611,-0.220087387358158,0.210233740135297,-0.0429668429666078,-0.215851005911038,0.156155399303401,-0.257068484888082,0.201783512380544,-0.0981323283132553,-0.141752122874448,0.155167513689203,0.133490713598014,-0.129895520089859,-0.169655367621907,0.10776046202813,-0.0109962275844834,0.234333060706436,0.274627355994344,0.0552450888635424,0.260607219869829,0.062568550199548,-0.258370025765294,0.16617628464685,0.208100604627437,-0.246159891227926,-0.174698255430796,0.059510805624235,-0.0505834988591298,0.0395065963765047,0.00932606196653965,0.177062464340917,0.214845529212756,-0.05601615692481,0.071027075114881,0.189170621446679
-0.0359439147302405,-0.000909129214434508,-0.113212581053341,0.0637982957479061,-0.0479918620045182,0.209841848122457,0.215648978244561,0.16758864978318,-0.275932351451603,-0.03222133805784,0.176386854101294,0.10114150314439,0.175894677068071,-0.0982485765412333,0.208448125917501,0.188834424687157,0.0464714245374397,-0.0823964178315454,-0.234276397079431,-0.0775434723833475,0.0153636072248356,0.13347623271414,-0.0997799620836948,-0.00980965322016914,0.134816708401664,0.160618926046079,0.215730186685478,0.0464977549994967,0.130430514631363,-0.176932599566813,0.24975698217534,-0.143632812426734,-0.0732665132409626,0.238884488025306,0.061498338678152,-0.192809309044103,0.186565490399884,-0.141320212202121,0.0111002375761731,0.157252556617062,0.0324975578451397,-0.121207999108991,-0.186797504615993,0.153869219123151,-0.281598203508511,0.237460166450328,-0.208310342633542,0.0728778473052248,0.171404094835571,0.190411677184003,0.0152558910936119,0.16867770946678,0.19927446888015,0.223155990351259,-0.237233208696824,0.154514328786649,-0.120198967572742,0.147050333160367,-0.0452402437658622,-0.159958643995203,0.151593452676205,-0.240344879755749,0.228755203116467,-0.094375917215987,0.24853368246672,0.127623846479064,-0.050890530815643,-0.11375379259141,0.026747019895541,0.0881883633735266,0.197769158027906,0.213974379000711,-0.0430449180650914,0.200936172779245,0.216378243503382,-0.236280964560583,-0.176127923811865,0.278818204589251,-0.17088166919682,-0.118263946405081
0.0603998188973806,-0.0431258935778582,-0.0132079191142996,-0.123296093496186,0.272586469157724,0.289816951168994,-0.044458420490086,0.0444858993904986,0.187666536299954,-0.0302576188271314,0.0711662304226543,0.0735242353675627,0.0199771752083694,-0.167024643929564,-0.117899778298681,-0.292092527909733,-0.221528586272844,-0.265002432117352,0.256984311068725,-0.18186537731883,-0.260966517450425,-0.0776609590443244,0.184070289553588,-0.0547444812988942,-0.196848399123534,0.163124746998287,0.0279712660022499,-0.0190863269303179,0.261969328450947,0.0642075174711484,0.225175995149007,-0.204439645930954,0.116062936428644,0.204334086531911,0.12689025817133,-0.128441860592322,-0.033821544141215,0.0554040396398994,-0.0766385566485131,-0.188990222610565,0.0847515525425414,-0.252204731761116,0.145892543108934,0.0115353102378801,-0.109502902315534,0.0432782918795492,-0.260179191411903,-0.241181013849185,0.0983267673372293,-0.25868463114267,0.16936041902488,0.056404846837144,-0.0583037060621892,-0.112046878574644,0.239974886228443,0.226087283356926,0.129582003820091,-0.227873497222652,-0.222712466134512,-0.104973924087101,0.121582319070274,0.112466791928405,0.0378003984071046,-0.0579563962795152,0.189309288391643,-0.15909919623258,0.258698707838765,0.0971531607576739,0.0425040138442138,0.0908133351307099,-0.226809264551169,0.246998051493068,0.156758350655973,0.122886458711298,-0.176996751454612,-0.166446754262969,0.233914897758662,-0.0827808474209833,-0.0202345636724276,-0.028988053283301
-0.205847332902072,0.0925105901314173,0.221863135556102,-0.0569133474361051,0.076251627083978,0.119310531738811,0.0116122146676598,0.122427227584263,0.099404284150108,0.17044651633135,-0.11287199421471,0.22266017737665,0.118932422777852,-0.118500252995484,0.00102841068708972,0.170176797258102,0.0449369628704112,-0.110869310347152,0.288410920633935,0.0993099573035222,0.0806260130285181,0.0983555912406065,0.143889940298926,-0.187198859573494,-0.100297389978711,-0.261356366839267,0.160934377465086,0.274441713494226,-0.0575003469855091,-0.1300606697076,0.0746043830270071,-0.147135499800282,0.194298166480421,-0.0514267627437435,0.203605235985867,-0.206055458465519,-0.157799495052929,0.18913779584347,0.0912055637612149,0.216564116510553,0.228352137658393,0.201629254176347,0.111058360106401,-0.280860967852053,-0.223515273095095,0.277830967441003,0.0495534213924584,-0.0838147953816121,0.0632750432713818,0.153484772993695,-0.126077056511116,-0.106572165719093,0.137220005138218,-0.179810111871464,-0.127129386747818,-0.00894468192645544,-0.122061938570444,-0.16478707189545,-0.0479998412506893,0.248315069740301,0.0895002148576521,-0.260145766746356,0.181145994551339,-0.184893281091386,0.0684710026578945,-0.0507263596502445,-0.199223174518447,0.119339597388964,0.0597654896733267,0.20945578594343,0.116979630933209,-0.190097038183501,-0.236210069898234,0.232251073686858,0.0414793483817435,0.247607516248604,-0.196652174354758,-0.207852653933907,-0.271653545701087,-0.115396323771024
-0.171489928073802,0.0621439731919449,0.0427346663347426,-0.188484199407435,-0.00215350653392418,-0.234947262344126,0.187791914730329,-0.300112801528467,0.264218284257245,-0.148398407517193,0.0186313329865469,0.108351335294631,0.114352969326436,-0.200507304761836,0.0921809129486662,0.277548625418841,-0.238495388294953,-0.0628666820996351,0.183484713590307,-0.0908919647818721,0.0033138621131022,0.0177498419548225,-0.198921362549243,0.360539104134661,-0.197054638355412,0.0980248278013493,-0.0918906786822003,-0.0269279840304328,0.0291488316166134,0.0608302955015461,-0.0489242372422377,-0.0547162089782933,0.127490679311271,0.198122954021787,0.0010132092589249,0.102118402289856,0.182340109135745,-0.0846436595824446,-0.274287659467336,0.162645223353356,0.0255642576381278,0.0397175071574055,0.194684425925076,-0.250671967165346,0.205280690858215,-0.214027482731661,0.248073090108348,-0.0644712747922799,-0.146648207729131,0.100432148295228,0.253730252453546,-0.035953632636458,0.0327641297373715,0.0152666306116471,0.174607335233012,-0.0826939008395338,0.00874965807705985,-0.0998189366996563,0.0115289019970645,-0.0803600332321535,-0.0932074091581884,0.13955085510955,0.000380977809783538,0.128601518039425,-0.00392542312538608,0.11869277654528,0.212359008762806,-0.268643824671695,-0.204177682729603,0.316769079897666,0.200851795043902,-0.240145445951108,0.157803198855712,-0.174873408284336,-0.14500372131757,-0.25128168679224,-0.135957100456701,0.042534909152841,-0.207503993902674,0.23099341911045
-0.309293489765868,0.0464884798740713,0.123965417021572,-0.282637533510657,0.293658554845568,0.285495934844857,-0.140122956131333,-0.0984694783053972,0.0471024706063017,-0.0815938833238831,0.0181388109825306,-0.322768776965852,-0.144472898380974,-0.232883854559431,-0.0809161692419263,0.0380525197450658,-0.226335292372046,-0.0246733590890506,0.0446091039698051,0.186575546696515,0.0839792626473134,0.189913684713321,0.151189331339318,0.0611002092353063,0.298355779183625,-0.231561784530749,-0.202141472628407,0.0568825610781597,0.104773061077818,0.0314746475371555,-0.179093126070565,0.115479974980115,0.217833282139147,-0.124009140433148,0.26642719282504,0.0098665884528049,-0.0786430094155347,-0.29809567758098,0.121714523322186,-0.179686700134522,0.111918806497102,-0.039029972844661,-0.249348415716967,0.166484301914126,-0.00929449347627196,-0.210769151136568,-0.110153075386272,0.0666392558882922,-0.149682849762883,-0.149522269399387,0.116698018297129,0.0830038309185914,0.0724956263591768,0.074292020369993,-0.0915572459418155,-0.00507740907676901,0.0957161541181874,0.0420321792591741,-0.162708216096705,-0.0302946741600563,0.241770069403137,0.246538037288004,-0.088464972357659,-0.299931628288231,0.252087746289763,-0.0363215762452215,0.050776616194716,-0.158839334788964,0.126012017302176,0.0157794119121442,-0.142806809752541,-0.0811586478559509,0.137351594657785,-0.0603628378650784,-0.223989036742468,-0.0627467042927077,-0.264605737950766,0.0985266538748325,-0.0618501456685243,0.183344548554467
0.0295595131334774,0.27265358632024,-0.230827300129279,0.134705445838463,-0.14872692304062,-0.224123060584809,0.239667679544739,0.164548729522822,-0.0423851473150629,0.118402190330388,-0.19339373746556,-0.295566671128578,0.168542593754929,-0.1934941003631,-0.151753619489259,0.149232506958473,0.112247787329204,-0.130374271192413,0.11429031234493,0.0256816220647096,-0.132971140662393,-0.0576452371166089,0.168753670613192,-0.120664654293969,-0.00290574463414643,0.0207355575825883,0.177074030024699,-0.21667593699072,-0.0238133099347875,0.283112623225395,-0.143589982989879,-0.240425302476846,0.134855120915607,-0.256747390291214,0.130816047397675,-0.24333104743804,-0.138861846133652,0.0577000784237188,0.213046162423891,0.100965901078336,0.011378573145967,-0.167595825268341,0.165119742404663,0.0455129586031789,-0.00339863989314799,0.248322439059099,0.269599701057059,0.0660026025253334,-0.218814302947154,0.0519199709724951,-0.0385089959557534,-0.165926603334762,-0.171149870191319,0.257115859708511,0.00616714921927577,-0.144542573081135,-0.0770226961385132,0.00744051651956991,0.238003072733148,-0.136451990817286,0.252651111462893,-0.0772322118587753,0.130452688023212,-0.218402795274338,-0.0374193646595032,0.254895250514793,0.155451075649175,-0.222806780393336,0.0152088499538986,0.0942775000158981,0.137593235360562,-0.0805877304611294,0.0383926865117996,0.0613840384513128,0.121579786440274,-0.267876652533582,-0.0382098066098775,-0.0873983215936542,0.245037954633184,-0.199556772435476
0.0556600959334668,0.259141127777519,-0.172536654696522,-0.208406672222104,-0.0439025822536419,-0.0548335410899648,0.0300775757516144,0.241952134346345,0.215456555854096,0.211139087596778,0.241987603349742,0.144134150697306,0.0511852758611997,0.272631505721664,-0.137719844843039,0.170756636392319,-0.12192168098101,-0.0327724835148866,0.0577452887770211,-0.0666458835836901,0.107772023410959,-0.125224255471991,0.227346190453555,-0.21692836477383,0.135779685604741,-0.104154408504825,0.0462299181124123,0.0952749825880138,0.176957754572044,0.0444343372633322,0.082971518649921,0.265163451331681,0.283170978108089,0.0137402601054471,-0.156920172428852,0.202435401572876,0.00957816675339328,0.0929403808955458,0.00494148627423095,0.188395541351029,-0.0971637410824975,0.0575279903336272,0.191970055272489,-0.144231669097559,0.233433028833529,-0.0491885982655446,-0.168901513245218,0.228864178152373,-0.233268492854776,-0.145222412759806,-0.0903580298853295,0.0936647799052428,-0.137479897061261,-0.126095884653759,-0.0678872162536538,0.275141392294543,-0.270634710780397,-0.028524519023588,-0.185934439895814,-0.0312538923257464,0.226809376150693,0.0650331542867523,0.243805909073431,-0.180483805959145,-0.149117245049522,-0.139887216342163,0.0195152557862761,0.0177838665286047,-0.00796595249972152,0.0212857850878298,-0.115907607505088,0.178936783069645,0.164313755452085,-0.169414151578118,-0.0052291982419783,0.197541653377217,-0.224309785353591,-0.23139435557271,-0.28649431236169,0.180941548040478
-0.0694839403299649,0.00547253133121251,-0.0187397384470528,0.153109082734931,-0.256715750000316,-0.204428266058386,-0.172932680970079,0.052913782610256,0.0203924528041021,-0.0996925193318937,0.120675291999854,0.0514558506029669,-0.146970214181516,0.219692786316863,0.082989808370791,0.211292483726512,0.00525013280269517,0.120807978480192,0.273289652100238,-0.0630628254624049,0.0603218697184916,0.0927343416090081,0.0716610968152133,-0.286639745247802,-0.252146083742856,-0.0426180325805216,-0.276600468696288,-0.134581625907322,0.0992647417660761,-0.233382182566481,-0.124134126667113,0.259235533067184,0.146492146055425,0.253814329564439,0.104491013951551,-0.0282820658723125,-0.215568892141274,0.226603731190481,-0.103202077018421,-0.215528123348471,0.0431761723581646,-0.247402614781134,-0.187796381009016,0.258258327624148,0.096656680649507,0.0654857811049615,-0.246112543930705,0.108297750786036,0.154168795470091,-0.162225314643522,0.20485977657418,-0.161501580277744,-0.0156144415947842,-0.0602134718045679,0.290533825336111,0.125396842686143,0.081494394926251,-0.170281371619064,0.091545653626407,0.0782001400275032,-0.166002721217181,-0.140987362663118,0.0425698721348995,0.0997433226369709,0.22532067486288,0.267520369217673,-0.208115877628399,0.133651596662932,-0.160736293232685,0.0396155023126498,0.233683921316484,-0.023539327885706,0.119498193618933,0.177879909613861,-0.13456984627228,0.122325105736023,0.235056369446743,-0.0256401749788101,-0.00793221023481364,-0.121191774451621
-0.174285117858965,0.279978884002372,-0.0844481877739886,0.107364476279152,0.143747072685111,0.166868925699377,-0.0683516796801178,-0.146905787084609,-0.181090963948699,-0.29621397796566,0.109311592667809,0.276550706401305,0.108212141802798,-0.125058431892942,-0.183668140635549,-0.260112282310738,-0.299764796438639,-0.11599470145785,0.0288556813958478,-0.291850217297366,0.00133898807752065,-0.075626091172766,-0.113981174320742,0.0825805754874665,-0.0498518563913899,-0.11805071308428,-0.0334180595776674,-0.139264838312693,-0.103813355831228,0.282422188886301,0.236161035852926,0.189565383091985,0.118389354570701,0.0593654748625852,-0.199252781144895,0.197310085603175,0.0509465627641894,-0.0748874955642609,-0.253152713899438,0.0791054386298676,0.0537709215814991,-0.107792069465957,-0.247156088920793,-0.11823795405377,-0.0650619861084273,0.257306529882881,-0.0662304631561176,-0.164727126346823,0.147592007810221,0.0397669983055762,-0.0903982740220823,0.0901273795418969,0.173656610194036,0.00909432145725212,-0.260220492699841,0.107128163342714,-0.121543381468512,-0.247050274707686,0.309027912321321,-0.0128705586477006,-0.273335374796453,-0.034613599610717,-0.155022918055106,0.193260079587203,-0.028668786462372,-0.0125639955966887,0.0731387988466124,0.080286614692352,-0.200667086625187,0.0514147555716495,-0.282468580060438,0.147880736198039,-0.106821281876186,0.234139661711006,-0.173834986566961,0.0199450294658403,-0.105351850938373,0.0143362889249437,-0.0687745617417285,-0.309031690037554
-0.239926691425843,-0.177152396573031,-0.133482886725937,0.221938588250686,-0.248286014802064,-0.116865025756827,0.0401787134084446,-0.206887163201218,-0.133045570606535,0.281067941347816,0.0328824250256351,0.0834104125275958,-0.112415450732892,-0.0610754151372647,-0.0202625236935768,0.151098951472599,0.177397167493514,-0.0451649348370666,-0.178406568444275,-0.0710631766514133,-0.0602279675120825,-0.0239655938243681,-0.194745652360556,0.0958787613001701,-0.288357180659628,-0.0612115004794149,0.0976179106734576,-0.175747811196992,-0.216403163029073,-0.0249639424218732,-0.0468703948482602,-0.173384840331369,0.171697535869012,0.249202828588214,0.138258115555996,-0.118820593497303,0.0438874928760459,0.175684360735875,-0.274919690776884,0.198811188802479,0.0263665636052893,0.122159755597129,0.0434399261880494,0.0330964979383383,0.212605062791018,0.106775573496101,0.0759398736011915,-0.151196963087261,0.254884158214994,-0.228332046731686,-0.170731815934925,0.259117118223949,-0.0258464693763254,0.0127056775886698,-0.106886645110972,0.158318534579224,0.191806638651896,0.120803431536424,-0.270134511407247,0.277551400920578,0.251068295151167,-0.073471414112083,0.15900910144738,0.202339133182501,-0.21993908130085,-0.0614516287783239,-0.100274064201878,-0.0806067283946374,0.185031407290322,0.135069772367842,0.0438444308442179,-0.105608779799914,-0.00363694219056027,0.0468071295559028,-0.10115407295597,0.0762315748614117,-0.177971967037241,-0.217114082588164,0.277642901359134,-0.234097210168639
0.0707218129449901,-0.0729295482496651,-0.186199438057738,0.0943737801435376,-0.0485022884993589,-0.0717154242723503,-0.224952618713222,0.108086151650334,0.0484558156146108,0.270397819503884,-0.0553841985477731,-0.127558598150584,-0.17524066849262,-0.168242439736239,0.124812776576271,-0.1435989443805,0.247331692181542,-0.0343032877800871,0.146122494217737,0.0819733866752573,0.097870778895722,0.0642867984269957,0.245494395226948,0.0797795648637497,0.0882874093858543,0.00180843145885541,0.0360944862498216,-0.271675317194003,0.232162685287051,0.104672228883994,0.125185397177349,-0.145090738900014,0.234680341102379,0.187379606583744,-0.197353392305987,0.229650028999321,-0.166850358181196,-0.0313900862711291,0.263825794689515,0.168390008874855,-0.222196397628004,0.0583194715233651,-0.128146369702184,0.0446702590731418,-0.105928119007379,0.157088463208355,-0.0833089360097716,0.0813451699062991,-0.0368586464083376,0.260480906318193,0.154483187617007,0.265832771324216,0.0809929517877806,0.187050425480712,-0.135206146251784,-0.262856260558949,0.0449522495019855,0.0626547265382662,-0.0487501652751754,0.146449667274793,0.249906847428851,-0.175806651476658,-0.053320358965957,-0.12659381048939,0.210346940681341,0.0507056553788274,0.271295849213013,0.251186476446262,-0.101779129729709,-0.138467494960411,-0.204838968597842,0.139580261960215,-0.0867485858418088,-0.215488344203055,-0.208355580225375,0.239521074202571,0.225192047411732,0.145909426102252,0.0953420763002442,0.199813578714885
-0.292458290592839,0.0992946945262743,0.0877885549801065,0.0128441563895243,0.114692252895392,0.252463995175942,0.0525725066231713,-0.233572988218317,0.121461349102326,-0.0673511539654695,-0.153333612046893,-0.130860381543804,0.154956906809224,-0.144656246929961,-0.255292777174853,0.154738116420442,0.0809900505944317,-0.0897798157374085,-0.0395317775887623,-0.0390250196190484,-0.000921317672557917,-0.180163904143621,0.0782603535756911,-0.169734452207698,-0.264666817329571,-0.124547948673262,-0.229960140577658,0.272542566046481,0.0701513337254138,0.0652853637856219,-0.0535452911806149,-0.034397901653044,-0.126837768228374,0.105000289589648,-0.0645062611898547,0.25785660593302,-0.254246880353735,-0.0285729344173466,-0.0520496127404641,-0.032241512353706,0.279046084763003,0.254657459270458,-0.0632416128217512,0.129944721791984,-0.178437567314648,-0.154067780942196,-0.122546095911014,0.105145400655287,0.21990581603629,0.0332665228398276,-0.209391453497875,0.200964004802428,0.0959484977006371,0.114567318531504,-0.210788668763157,-0.159475601219204,0.0132736308851376,-0.0216775899313429,0.0490211045491694,-0.244562057222956,-0.133425983085431,0.282518845812881,-0.186654051047947,0.106377816001255,0.26961949141378,0.131812537841251,-0.18208763219502,-0.134187207382526,0.00224147091697538,0.0755805368658268,-0.00864791600970897,-0.234532874437955,-0.168852356078676,-0.227213637541286,0.26358088631831,-0.00456171662646282,-0.247359535285168,-0.153547488921539,0.041351120428221,-0.274421548451021
-0.0300353499524874,0.130904725194551,0.121795372676423,-0.0782701839331925,-0.30012071988961,-0.246466401457179,0.111753482334258,0.147246399464048,-0.0393543770885802,-0.32814767416853,0.108125517195049,0.0818530024306299,-0.176660265804566,-0.160543086934487,0.035886233104923,-0.147724300012355,0.0646961549632361,0.0822416795594373,-0.106414176228232,-0.299763175573862,-0.0336967131372582,-0.0883988657442214,0.198941238565553,-0.0382772928788712,-0.178541422609845,-0.0599264407015312,0.0213409798650061,0.0863688600775764,-0.128472021137806,-0.113052910556623,0.285726086958814,-0.227585630282826,-0.182222465634383,0.022431306720649,0.125309999071007,0.138896168809709,-0.189708862510144,0.180983224926468,0.00356811455400561,0.140905301617367,0.15089716599327,-0.0400007082232462,0.279461211308286,-0.0219708326207699,0.171344688619971,-0.119590740505549,-0.0354149311159425,-0.0353196192508524,0.208900754164192,0.0786890095441489,-0.26294839192226,-0.0901617691214632,-0.165795358545643,-0.229492125793063,-0.0789709643604331,0.243275121705512,0.161246479670108,-0.157201142282718,0.057275857073595,-0.0715629117449698,-0.217475380587724,0.0243239110923646,0.0439001289820841,0.2171709286435,0.287693093539082,-0.176721881104925,-0.0573820371024493,0.206315487090036,-0.180051735644829,0.270035338163488,0.272367478374967,0.146327304656528,0.14728675711936,0.161226103866465,-0.110222354255697,0.309568868837462,0.0767943422130312,-0.146492190940483,0.117876761760555,0.00302711468570077
-0.0266483332542181,0.0844440522535566,-0.096169648304168,0.218474292030643,-0.244391131028557,-0.0748577627734959,0.137334782052722,0.00623666390704291,-0.250754284433443,0.268560185478985,0.0352057051971754,0.10422610666384,0.10761121252823,0.0256716035578755,-0.252272342544235,-0.279560558927783,-0.0676671534040621,-0.232215344110062,0.00405758013379026,0.019391179198196,-0.1221215029322,-0.093082693678179,-0.103256966489613,-0.182470404941357,0.205862443274433,0.207583932660173,0.00439014256573482,-0.103147796509185,0.192768836820755,-0.0168747501018318,-0.117697950230959,-0.0815442154340695,0.104031488702113,0.160118322165651,-0.261372151390912,0.196708973898783,-0.025920258122579,-0.0155129956044986,0.231425377369566,-0.15306641002398,-0.0772708572868068,0.214485485016935,0.00729134521477155,-0.238689242905945,-0.0604285674615837,0.181295038261202,0.0507083976854687,0.121833334215424,-0.0872126101639713,0.207947178463774,0.113027993730598,-0.175038462414576,0.0740108699535536,-0.0683794478099477,0.187781127924862,-0.113618107291959,0.182652871398328,0.167874526228422,0.197324438556282,-0.17590841469693,0.210581955261844,0.222482392808263,-0.096014225240348,0.0702325982016537,0.16765065819767,-0.121337420377719,0.260051183381275,-0.0222122430859467,0.257751663566592,0.148280696386461,-0.278040341081804,-0.201014837556026,0.0171581311093158,0.22527708915589,0.264888338009602,0.106026611762033,-0.236414723215137,0.0378690343199022,0.1313808055597,0.27686422514104
-0.27150418266172,0.148729816479818,0.263556728283247,0.309431254447061,0.234102692541891,0.149076704810935,0.181073356626183,-0.289168084749901,0.0424216570249287,-0.203189130824028,-0.142641278948755,0.0168094845932459,0.14612762203458,0.0617729896723416,0.0668105323912558,-0.0858370282722051,0.0992535927885157,-0.0378034481711797,0.141318010434659,-0.0970906716195101,0.0497251745587627,-0.257771476082965,0.23688753375759,0.0427654240633753,0.133871819636654,0.154664360371918,0.11812570967514,0.160725185143665,0.183989412420581,0.13489928137176,0.149003069976022,0.0578260263329533,0.234483830142627,-0.0386341528807423,-0.173689512971021,-0.0877797848962489,-0.265452692938677,0.162812402244969,0.187233651504906,-0.210967645609021,0.20410130874809,0.145160605819023,0.00401639480895657,-0.122383430922659,-0.136254753842456,0.193584055351541,0.221370355433478,-0.198915986746883,0.0849115313717646,-0.211929875284708,0.035570938064914,-0.0756297925964966,-0.0403736164996938,0.138249507112176,-0.157233960764451,-0.122433659927567,0.280714221256314,-0.17653301940768,-0.196584976989885,-0.280488279172365,-0.148222894511768,0.100052173898261,-0.0828668351352685,-0.0539899104581301,0.132067761326187,0.0741302525917608,0.106689214897772,-0.0948088798240434,-0.132027187793261,-0.0155877223940448,-0.10781910707617,-0.308397285204881,-0.251529516123941,-0.0416248342166189,0.000577744120752159,-0.255430471585716,0.195651336866606,0.151594979188985,-0.1575022595757,-0.228446315535215
-0.161006956682991,0.205641494988922,0.19765389287421,-0.118079097835224,0.0356680681202307,-0.134811060412742,0.114500156091506,0.149207782467168,0.162314335939033,0.135212582041856,-0.0894276026649646,-0.268551905089175,0.0128166576531062,0.0903577666061477,0.185262796697083,-0.210193062161535,-0.277544650649685,0.214091353752188,-0.0510120439285002,0.113473046808054,0.000496536894965024,0.172243646388683,0.091144210796421,-0.212402897837153,0.0590806580216833,-0.263432895074042,0.0694913753927115,0.191322536524196,-0.0676971148696236,-0.232109764520656,0.213560286486107,0.180083613518291,-0.131325064026875,0.214549380403089,-0.105105589679808,-0.176870667816617,-0.176130932226067,0.0588079038686773,-0.0968647198791534,-0.197931551855404,-0.270435535133341,0.0426710937680079,-0.117819523631396,-0.170643719242898,0.0595570099769249,-0.032879748733453,0.271184318843349,0.109886115873581,-0.233513167456332,0.224905519178072,-0.116892713803757,0.129875718837278,-0.0935608561228447,-0.27545232468495,-0.136039826457616,0.0278789963556441,-0.233156459058451,0.161308245288183,0.0591844087952758,0.0647636610795952,0.0639862060402812,0.261075224524183,0.213233292706024,0.21452510196583,0.101791491238843,0.0657406154988389,0.239244665429477,-0.104064210607869,-0.198737694543454,-0.138255751784855,0.14672819600831,-0.0516000429144404,-0.210279078426506,0.169336556541847,0.108070297134115,0.269044856703558,-0.00648914760191782,-0.0107272892678831,0.0979929463254578,-0.158680023382472
0.159456270781803,-0.146054949240267,-0.0765567326544334,-0.147635954880778,0.195224365398653,-0.178963637198366,0.149095751507739,0.194540663559909,0.129955981548124,-0.132240815121662,-0.181266982180311,-0.165145934788376,0.0528780833395856,-0.0241278542360946,0.225255458297177,-0.116434099180071,-0.139997866696136,0.00439519083793037,0.0444182373456999,0.214656035226382,-0.0283007517923694,0.0674885590439565,-0.191969942904056,0.263805494619804,0.228388073529392,-0.130082351042546,-0.116446080328179,-0.217271271015305,-0.166201261926241,0.143629189472765,-0.21489031593975,-0.135579406088203,0.0213112092874679,-0.226694882760184,-0.269490247411508,-0.0817111070207252,-0.206659317536346,-0.0934171434127165,-0.136778338517156,0.0393043227340602,-0.201029034949731,0.00413919674416637,0.0502289606631235,0.152763052589481,0.126513015097271,-0.172832668450332,-0.128076797360581,-0.142999857851521,0.296163324911257,-0.048503692596795,-0.129434665193249,-0.126755901320552,0.0452402640850909,0.190300379434969,-0.157978976066829,-0.183648029802047,-0.112849190144775,0.127032531480389,-0.0238533178278811,0.192746037201973,-0.217343356317609,-0.197655784840275,0.164671211170488,0.19104068301253,0.0846824100186108,-0.107328445192921,0.137183147433781,0.0110153523329193,0.030168737352649,0.142260013726625,0.192614973950291,-0.232138947033002,-0.155767656085502,0.234051133901909,-0.289872680048865,-0.18704622755636,0.1057379529472,0.0302687162178143,-0.169885611539474,0.149987527260021
-0.130441636391335,0.166679951527267,-0.158321084435133,0.205303385609886,-0.275368501232115,0.00206949372402829,0.110546738100689,0.122261361419895,0.225779249090356,-0.214027320048884,0.266034593336285,0.169313053074409,0.0190489252574683,0.0701695813573716,0.272055892520949,0.0545794528824426,0.0301008841784158,-0.143505352069349,-0.14354768210291,-0.0273910666335076,-0.0265941811670787,-0.0897254235289838,-0.0763258710110293,0.317643424658452,-0.23005717160016,0.132903000099289,0.116033983690389,-0.0365324131605875,0.296443990696957,-0.0290950798768642,-0.0189195652968974,-0.252843881599274,0.0713582680409183,-0.119164376153023,-0.101384265276888,0.154630437114438,0.060316803631707,0.173285129692892,0.231281898591842,0.0825452886404252,-0.131621948997348,0.148518261251378,0.0580436686807872,0.222775547823467,0.247672895033567,0.1309293314807,-0.0677013470369693,0.0989408988755873,0.299454624190838,0.0259489117681649,0.247121107226585,-0.144885925122437,0.0915970284100212,0.0165879877091338,-0.0126025936748471,0.149063115096114,0.253049530665123,0.254764513894794,-0.0758298699495265,0.186042456183571,0.176000544090164,-0.0942122723068811,0.0872732692790403,0.00620809244522802,-0.210721253991007,-0.247756652866693,0.286013701854621,0.0911586673192438,-0.115949248493575,0.0465932424016258,-0.160367082238311,-0.0796307360855249,-0.169344975395932,-0.150174423720976,-0.281939819519844,-0.0895797286513636,0.291236792361841,0.038272991999336,0.0691184453882054,-0.168041319922516
0.14634546433838,-0.22198255935249,0.230977740173749,0.0826797040208881,0.104083834004755,0.167605711071872,0.257907849408695,-0.199976026680192,-0.0945056936831971,0.0112212996367372,0.1095192751812,0.219553983711854,0.165436435842106,-0.120550650137488,-0.193676328170574,0.124205773633959,0.0303918750190526,-0.107929657475184,0.231398092346219,-0.0145760242922874,-0.07134791259078,0.152957845596374,0.113318719115701,0.238318076093144,0.0103983960421249,-0.151937636321044,-0.1095056354074,-0.246024813840185,0.110194261338038,-0.0735520324902667,0.189690330641482,0.260997792642624,-0.161555201585606,-0.00297153278104999,0.262327581500725,-0.144934160566898,-0.154602813922033,0.00914464981897737,0.121398248454073,-0.0965641745315286,-0.0631244212478132,0.130465751311614,0.0315139779667923,-0.0996772780574457,0.236085624357747,-0.0760337353780569,0.00580509495336257,0.0330704828406094,0.212854464287236,-0.068261919023732,0.059657096820925,0.275215426822575,0.014219885816611,0.201149091180565,-0.137663597331279,-0.272918245887726,0.0745261730118953,-0.167656051330949,-0.0693252403075426,-0.072254817768702,0.00816482607883232,-0.0676616250867782,0.113766576678257,0.21478323175951,0.176547877980572,-0.176388324521277,0.119279665297688,0.168127677293957,0.241413978332731,0.0426861207766582,-0.185101557891865,0.122398358090886,-0.210041855771968,0.21402465002448,-0.240270934052246,-0.192046857757954,0.235401858143752,-0.208636105001254,0.250507195557341,-0.100433346924655
-0.273552519867301,-0.206137864117653,0.0251440589504052,-0.15560990096603,-0.10616106137382,0.171045303877544,0.0183222564717888,0.0876589472965658,0.2201513011991,-0.105556142553999,-0.0161297384136707,-0.281239389186955,0.185657358748708,0.0586143248208844,0.184026113088876,-0.0246874426621185,0.193920880038665,0.152802550725727,-0.18865723045387,-0.240662628933656,-0.126646822817691,-0.199690270026455,-0.133048483458881,0.0299849714467756,-0.184336499179704,-0.111000882103923,0.231678415193477,0.140564810715446,0.0588145789439225,-0.0166489149083384,0.204683898994488,-0.0842789329559045,-0.126028636570907,-0.170328905672278,-0.0749393755753002,-0.0731533602256768,0.261950360236794,0.232001329206403,-0.0674711305674321,0.123071845365988,-0.259600728085709,-0.0297878269178829,-0.207355655568346,0.12671274487759,-0.136339135097571,-0.0690540296069765,0.187248646178734,-0.106543039784327,-0.217785032055609,-0.0536539004346275,-0.25327272075029,-0.205062965144821,0.201766827934959,-0.043496219913385,-0.0748208931513438,0.244956026919791,0.0949127148777448,0.27496997240069,0.126680211169018,0.0683957077235284,0.160394211660276,-0.0110759251272022,-0.164345624467675,-0.218715784722788,-0.0129277351791761,0.22052248295675,-0.00710009453387819,-0.130554811682511,0.252323359159556,0.195685912084001,0.146416095127228,0.0505003713124594,-0.0658770590014319,-0.188506922727122,0.0843804883890597,0.241269682594481,-0.257821561625412,0.170004872047762,-0.115433124749523,-0.146191556918
0.224001045990881,0.251870563543258,0.189951948042695,-0.00577847925059532,0.164680322181239,0.122513466584213,0.00232339763935561,-0.267291058654819,-0.0973245143780496,-0.0377847105211738,0.18044959979091,0.240843523112858,-0.16267253716214,-0.0658656618697378,0.0652542386410372,0.166633622322777,0.00515708536438066,0.095778421544247,-0.125936213102599,-0.083447732820405,-0.185295736073093,0.124512045325537,-0.141363132844998,0.0653437610383733,0.163232557229859,0.221624600801742,-0.256819913798441,-0.217022606679449,-0.0659016241671639,0.202513231319977,0.0505765211709928,0.00857297693876636,0.113896980566266,0.197509197887277,-0.0580752816571324,0.26382428242295,0.238885775791012,0.186622741682165,0.293498775204533,-0.275827361218545,-0.0477559285695573,0.162979552624763,-0.0440221606653018,0.177056510646435,0.057968938583299,-0.212749379148828,-0.256616333106739,0.056738970338994,-0.000960760823348468,-0.137570571048872,0.141928754421297,0.221037766807495,0.170802314272336,0.0338068150324969,-0.00158479074143176,0.0868934240822174,-0.130363003698522,0.0934199257386087,-0.0541365319349956,0.14059337807277,-0.116305195055399,-0.0782755696212661,-0.0778771876442318,-0.15167721986372,0.0168266025176315,0.15748564859038,-0.246917100615319,-0.185110191029096,0.224419931193912,-0.185467132224398,0.201339803598051,0.174147012059757,0.179564747111522,-0.241507912245594,0.222209768270673,0.178417961310784,-0.142011587062353,-0.209099490154976,0.0762169311032509,-0.265249270689289
0.0166270548594668,-0.0569329007674434,0.099444687256722,0.0288340291053938,-0.0619087592757579,-0.12882877266727,0.0639733288988777,-0.181470324654912,0.268358242966576,-0.115495304482978,0.0378743788466837,-0.112075663674612,0.0243992918784825,-0.238333455674869,0.130777492931424,0.28329362326746,-0.123074468623274,-0.153721903900363,-0.0339932071716785,-0.230994844104472,0.222393352290238,0.148810400015375,0.00229593026248618,0.0479072534285832,0.129757780936583,0.0845850248067446,-0.280623227528383,0.177189303233243,-0.0226445979770326,-0.129844369435197,0.278041603123809,0.017687993752806,0.171509796112379,0.193508335863867,-0.134852492574739,0.262025365066668,-0.0949399038409056,0.248005302614849,0.11967253470262,-0.130656620319388,0.172908800965932,-0.0203363923880535,-0.201265843957161,0.131597072960297,0.156868972908116,-0.181453757783882,0.234610382716164,-0.0372109941956023,0.235811936956681,0.0113965924004648,-0.0434532749611883,0.24011348858675,0.276881665641674,0.158070493845164,0.166691111266103,0.258589971354619,0.175023263535278,-0.00333736986113136,0.209524330638395,0.208919727596755,-0.0148765458395046,-0.0127227100857448,0.192562839069267,-0.0756854716134827,0.232715552184884,-0.138169400292093,-0.156046369748077,0.170772851970485,0.252549057638262,-0.229565338138274,-0.178557952369097,-0.129395871116719,-0.193233833372463,-0.084742617026512,0.115395061125876,0.129011008661642,-0.228878777491465,-0.0595009507683816,0.0261924774278211,0.0430289014184133
0.11843998868326,-0.0975171423044188,-0.155773598191231,0.0793001923790572,-0.0601898707023786,-0.264511867105739,-0.103223515509361,0.00419656331803565,-0.197954080817267,0.24224830241116,0.133442232270607,0.160939745867026,0.159221253968014,0.0449081437593542,-0.193590728616899,-0.16462760994438,-0.245095464170157,0.144569745852121,0.110170769830411,-0.208136050621361,-0.0703719401355523,-0.145790163929459,-0.0568242899892799,-0.0828742698403673,-0.118602151508002,-0.00766057605713173,-0.17846289381122,-0.279104535834682,0.0240774283248393,0.0366385118289902,0.31820524855797,0.0575398695421108,-0.0692370198439917,0.0202215929922766,-0.168483903188713,-0.0545507771831398,0.186745080230981,0.082215578664216,0.229427497595912,0.125114800430202,0.0781982438982544,0.0832907256421593,0.213325170632993,-0.189429321738988,0.160108065279847,-0.0552650795262904,0.170243697569545,0.148183701214151,0.28179442731205,-0.0778224248679036,-0.037752853253494,-0.218468060640901,0.0979865993762775,0.163031161376373,-0.150774039079027,0.0606066421285291,0.243872810983217,-0.159988304705258,0.0637372358630603,-0.0678069234235741,0.0476814838400379,0.262982017138655,0.311096954369201,-0.242213363625246,-0.0949393823323888,0.2560896697893,0.125893322820482,-0.0644499134037961,-0.130637465105529,-0.130166633797993,0.150317376398139,0.146211067950786,-0.0907781265873735,0.120150160256736,0.108755798659198,0.00340819082446644,-0.193367730693825,-0.275844053428798,-0.250855778819661,-0.229937229581211
0.0861940927669969,-0.160513909257789,-0.24460776998817,0.101413428894981,0.180683839669363,0.201615999998403,-0.194756130326464,0.279368410864526,-0.0856257409686898,-0.0447964242930564,-0.202978811609871,-0.335410448314204,-0.140799360631265,-0.0229199876347441,0.0188607659719084,-0.0216253364597581,0.0087762123377453,-0.0323237605025032,-0.102388584944937,-0.0339142370735475,-0.0116353524107966,0.0203585258625545,-0.0487935379769389,0.083983417194111,-0.0238410433350899,-0.152206234915641,0.151311114117931,0.291837605156903,0.0391517409532331,0.0565450925494447,0.314493279902433,0.261015932253799,0.143364317454995,-0.319055521627705,-0.00821277964729965,0.119535697878736,-0.0953105956846739,-0.239936802618882,-0.206129549565056,-0.176943802560996,0.146821332834531,0.106368769733691,0.0792528994248383,-0.207015319008947,0.342506606453424,-0.244709665262189,-0.235723343659283,-0.146432026960773,-0.0610750389106745,0.210133534121039,-0.0740429616200256,0.13804924691173,-0.015317852041919,0.186863777521818,0.119555749789269,-0.200032245472612,-0.171958559562606,0.0496963363336318,-0.0403730244091902,-0.175714330543685,0.298440184034398,0.209488541385616,0.0182774038758352,-0.0802368204012711,0.0498441375952649,0.23490289647571,0.108569454322723,-0.237666246038319,0.0206279406123137,-0.286083469530911,-0.0400586274687212,-0.0972694405072963,0.0159593078392465,0.210616065627095,-0.0821834586355858,0.0886670508207264,0.0311874174192082,-0.275635033534036,0.0659823909088046,-0.024014223430079
-0.247903936796744,0.0932609928670809,-0.170950686748333,0.245581578957849,0.126378159305112,-0.115595953301171,0.151231355317939,-0.189623102104921,0.116383003412994,-0.0380081561062196,-0.16760289680829,-0.152895574965086,0.272112758551869,0.190869888279501,-0.138620320852825,0.186658130265358,0.122188080998316,0.303178143542211,0.0634061224319983,0.102953508792901,0.211432944356813,-0.0119724122224329,0.183620646831845,0.279843177858966,0.00633671483056539,-0.145280562636531,-0.235464000229414,-0.145416985892062,0.0431781545147944,0.318578722774048,0.134109943543534,-0.0141793677635217,-0.1264191508332,0.114686840308168,0.0608485917133653,0.0596100298743236,-0.0528801157572124,-0.161514550794636,-0.153574350393605,0.0847279331187288,-0.213348130837375,-0.0869814449015621,-0.328183588241009,-0.117535790023892,-0.0866476005896226,-0.0925893922914188,0.286306733248873,0.123183475319585,0.0240437587107745,0.0487379232271294,-0.275217361408142,-0.0886401079617949,-0.0575023697752958,0.00790657114440468,-0.262914841736597,-0.0344386039445412,-0.100485149402699,-0.15790673843206,-0.236806700593847,0.204204143239197,0.207942291082644,-0.0061525043228862,-0.294339374078496,-0.317055295318512,-0.166388908239138,0.167531089499051,-0.115694676862015,0.0259545228571821,0.211762405232083,-0.00924499851057098,0.12105910484518,0.110765469366961,-0.028637041208293,0.130614332765343,0.0590690923513588,0.198209070424131,0.0929274081943989,-0.194512310776917,0.119631648932817,0.0274229674312755
-0.0908480951158743,0.156570275615127,0.235944977839928,-0.211873436690045,0.0189610827111442,0.0949194742635274,-0.194440188504584,0.0798085510191067,-0.0427381528889036,0.221007016764217,0.175159422304977,0.224975054467478,-0.104281980556047,-0.271791443609244,0.109929402525686,-0.179815941682343,0.197365811465129,-0.240545562052926,0.0816029661525389,-0.0220998416630504,-0.0908166534178794,0.122686894523765,0.139983119911266,-0.0434109166897414,0.269413372008531,-0.0661770315183514,0.106943340750652,-0.101435147580791,0.139227716948368,-0.177219153182626,-0.0497081690304685,-0.191891807725285,0.169960201202182,-0.273077198430073,-0.209040844745998,-0.0794280706148703,-0.130041933138468,0.10323534198401,-0.144925766450902,-0.144858886608904,0.17238292843228,0.073430616905275,0.199604738519788,0.26593554986076,-0.249113164139291,-0.0030001853545455,-0.213001583497543,-0.10732611975599,0.105720290140726,-0.278254370805471,-0.0370125352398256,-0.207800022004679,0.235453559938773,0.114988078582539,-0.0901597092384174,-0.0477447993483983,-0.0992309925961035,-0.00714738066956684,0.0493027433133328,-0.244627080392775,-0.217592478011201,-0.0735064263210397,0.10405221564612,0.177689651149948,0.23808346245742,0.233391710806977,0.221917475493397,0.0835905084391328,-0.225777420857899,0.0319030021024206,0.262485261244627,-0.104605421009421,0.200256480583167,-0.12853105321049,0.0850341606406957,-0.131288850438843,0.0245219293353398,-0.213545228214717,-0.213653190817464,0.00910042599289492
0.184277625618166,0.130573611153614,0.0765659588329132,-0.14688359557833,0.138124864112598,-0.149512077239743,0.159931384211892,0.225387208913602,-0.25571294234813,-0.065811865946528,0.270017269432852,0.175876522860798,-0.218846368083945,-0.10249646268466,0.184355729294011,0.179884439508364,-0.0159535591984751,-0.082878994700019,-0.151264157396874,0.149811312468762,-0.0418886520606198,-0.290468585981144,0.269855193705481,-0.14548499862766,-0.0471422121948417,0.196703470803169,0.130975515753369,-0.162688053956382,0.0799260150311167,-0.131642366776388,0.0793617703624221,-0.171229939640567,-0.0144774101948141,-0.257477066802248,0.269330933451579,-0.0799028201431957,-0.174526741535193,0.0287289717456346,-0.0188217239072349,0.23927759307472,-0.238713401989382,-0.121365172575204,-0.0712354247116133,0.13798127531859,-0.0629015009780019,0.221257350637105,-0.26931722753254,-0.133424393665796,-0.0733995420882296,-0.0772674562691425,0.040011540887883,0.0603450459035756,-0.20178226398422,-0.129025304688227,0.217524934898593,-0.166124602351178,0.107282325893183,0.0975959668105138,-0.162954479434338,0.0822640831153286,-0.00577558038065918,-0.247805833450412,0.0716248046652754,0.228942684202433,0.0773329742312806,0.180282190082552,-0.212338178306604,0.127027632740551,-0.140969302322648,0.250137854510805,0.22617383032702,-0.0864689572855934,0.140294789968838,0.099795725218023,-0.253910549033452,-0.202382818277299,-0.0415916824371091,-0.0256619110081102,0.242418857861801,-0.109454682879013
-0.244565641822505,0.277357485891431,0.17312721802549,-0.00100306608654292,-0.038848154761869,0.0898702293587752,-0.207214111861527,0.276480121404413,-0.0368333115949461,0.0044138128736834,-0.224857266890783,0.185255409094998,0.157301886068631,0.0876945314098465,-0.0110401963999532,0.238382117949968,0.303120038878621,0.121818407949153,-0.240755165230378,-0.183835513189607,-0.194443156813793,-0.203976119753938,0.113080395633629,0.0836279910905638,-0.0213312052507117,0.106476006876701,0.124555445646975,-0.0904472265353147,-0.0478468203546849,-0.261575852158795,0.208676687654783,-0.267489906929407,0.0944814654275777,-0.0820866574510503,-0.169716884488349,0.249359813066265,0.188346040933485,0.22697474087198,-0.141274927457818,0.132522003947515,0.0406012486684014,-0.144894740218014,-0.0541763922491183,0.00835789904250262,-0.0832222004655777,0.0042297013690154,-0.00622809083507436,0.258515202177846,0.0353768365671491,-0.0217303919590512,0.044234070895789,0.208804941708817,0.129572054643638,-0.00596012063580763,-0.238802855330905,-0.184938116169742,-0.119454830549781,0.00319862593566394,0.190452158117345,0.17224346878079,0.162326373833645,0.208694427685534,0.0590335968776188,0.0411486767995117,-0.149957255362109,-0.264196147981215,0.113335227639834,-0.247291708130035,-0.293700019116244,-0.193714220469772,0.0506276607562995,-0.245799513165423,-0.155865147864697,0.167690049266764,0.0550853481120511,0.0243562569209914,0.204234840242863,0.0167111238963164,-0.0604856257368026,0.132110667032035
-0.207607360245367,0.0571112910496246,-0.108306797053642,-0.253691787320065,0.267924795916157,-0.240683440238544,0.171985983773435,-0.272241792088924,-0.181981629729717,-0.268116417945287,-0.277242784710365,-0.161453214089268,-0.105278433344682,0.0719796560583947,0.0946011361288467,-0.0642085577194327,0.0823739862572991,0.0731991220600117,-0.201451692432849,0.284151978724716,-0.0409659261151859,0.232690027337553,-0.187497456805974,-0.0435120934159666,-0.231148331746612,-0.200027723904633,0.140213715273476,0.186963929208992,-0.166363646739209,0.00820098677479226,0.0595140749591507,0.0557474601713603,0.00324657043898738,0.266262716224858,-0.160187750001295,-0.139169325151617,0.0484315090839103,0.0927985505252126,0.146306614101367,0.0136616521451844,-0.0236509840067512,-0.0390438938035031,0.137797491603771,0.208151798104511,0.213593117278267,0.0803123061068756,0.00783155811899062,0.274346489386376,0.158208141729046,0.0281309461800777,-0.177202251627665,-0.0855401917037803,-0.14944305155619,0.185590885836626,-0.0611332948278079,-0.186412783854669,0.00555687177203354,0.258685679017251,0.0230412090605272,-0.082063566285392,-0.0366344818307348,0.0353194014855577,-0.0659894172400298,-0.0875514535875422,0.0975540647827798,-0.0391290028953206,0.170752486445584,-0.189194659178665,0.203126770912006,-0.130264912477687,0.197146881928892,0.161963449682657,-0.188231432320587,0.233260621273999,-0.28111716895771,-0.0637464720367691,0.24054428958887,-0.0927481334902126,-0.212767981573914,0.266063337612182
0.107405115257027,0.172820334022858,-0.0330305372301164,0.226870465769311,0.193064667131572,-0.204731386409912,-0.0939331969530033,-0.216397800046804,0.0592596799457917,-0.235656564173602,0.0222883977986438,-0.227443052150029,-0.00184510512915588,-0.233384148539686,-0.067914084448843,-0.125221899002892,-0.151723976872616,0.0158114057525614,0.18238216604438,-0.151784008351236,0.251456817381416,-0.124931488588469,-0.120659089938757,0.163725189152249,-0.181206621155664,-0.0935760390492564,0.199652574063699,-0.085135213776143,-0.0166969258872601,0.147842683469908,0.0324990486304654,-0.239588807911404,0.0667354883921464,-0.0614576432757407,0.228216918976436,0.205534652010522,-0.0793158149293329,-0.222384948939487,-0.121130166419308,0.194010018949582,0.0463294910399242,-0.227029912143274,0.192397820655061,-0.132300645363945,-0.000857583730420504,0.161145308742942,-0.219023487662065,0.0597597621381274,-0.103877778898531,-0.26415885697439,0.014010317431182,0.252459248624977,0.0932561420242368,0.0185597936307709,0.227212617637368,-0.0275922342772558,0.217664365435563,-0.120103901043918,0.051598740944189,0.18027483040473,-0.214814050119795,-0.0383774093396776,0.0329690645585111,0.242435466237207,-0.0887331114812552,0.187982174410676,0.143006593807852,0.192692648114825,0.21829514125955,0.241318695983877,0.145516491695379,0.233692867791023,0.0279597587064422,-0.277438165829599,0.0824799414136808,-0.171340121897451,0.215969939701205,-0.111440602738513,0.201094716768626,-0.221797197103066
-0.116990567016002,-0.143027918009504,-0.23361440868667,0.231424318207929,-0.0718189304551153,0.10458595876748,0.215021973645403,-0.0808078414442137,-0.260648143019773,-0.00080908269139348,0.133889806942487,0.144816763887278,0.0874836362088499,-0.0578449206536214,0.251666135390229,-0.0143541978732813,0.218086775665086,0.0968565899740004,-0.253525529390292,0.213366686379469,0.0832023553984064,-0.189178405878763,-0.239237010801452,0.128716416172643,-0.0523902611154188,0.0839574530042503,-0.209437316804669,0.000191892647804297,-0.00594604623740714,0.0878800265159984,-0.119163109410856,0.0603120651671871,-0.0331204852324853,-0.306169499732788,0.203663771891968,0.269516741548034,-0.235831235980579,0.021365242534308,-0.154073822252052,0.135091017780005,-0.202580461159119,0.167055246128771,-0.237114877764136,-0.235281196577824,-0.217539492586476,0.0321890020157873,0.196509589685818,-0.0101369822721712,0.249445134516807,-0.264144421068254,0.0858937448687443,0.191801376554888,0.0594719879968251,-0.0264775926207647,0.0402430571167025,0.229624051734891,0.136735628288434,-0.145092726955501,-0.0682445880312308,-0.114087891202739,-0.2296541857683,0.179713388639529,0.260575115837921,0.135915581385074,-0.0881752137429801,-0.255990696139675,-0.103488957739831,-0.102448762791392,0.151712433980348,-0.0323157560068282,-0.00785256643031084,0.231421573266049,-0.0928918511545491,0.0199582757983163,0.0936274268319006,-0.0508064232775233,0.173085288896126,-0.0885875417499136,-0.0285919846280506,-0.135677999213674
-0.153047133387516,-0.132090982062559,-0.137768889448367,0.219743755189276,-0.26978043168597,0.0771144060175347,-0.191511431885426,-0.259554137312233,0.251126674293096,0.160027612601687,0.26088860219039,-0.0647984324926858,-0.00705376182793603,-0.20045319281338,-0.142611250013622,0.195011373552386,-0.0254433533427087,0.178209160618655,0.245093373804563,0.0603538827773511,-0.0106750666808353,0.232855002800015,-0.019040489093484,-0.00365943258165431,0.0752831971293641,-0.23865549328803,0.130418292396103,0.150111616622284,-0.0533892756688757,-0.0482332748634234,0.00503475352769649,0.261229918569498,0.232274382437534,0.23999146648343,0.0497761010998612,0.0968685315791402,0.178849856163588,-0.191607294705839,-0.0988173954338439,-0.144990897505174,0.129742416846549,0.18166354420221,-0.120889929546129,-0.110971106825358,0.0795887065961973,-0.1797973267245,-0.124446322487396,0.193144253685693,-0.276798819053296,-0.257722818407742,-0.264022572107084,-0.0642461239468991,-0.0161696551802617,-0.0308330009475837,-0.0841906518015603,0.268518962018795,-0.117206742261106,0.0384106257324039,0.035811289635291,-0.254584070540531,-0.193473565881276,0.232006213183344,0.0494709288038094,-0.136014087948195,0.190043235088535,-0.174361182399932,-0.0657490301961003,0.256595592055399,-0.242514468069511,-0.145974973962301,-0.00672887829889579,-0.0111234755499998,0.0881974486004398,-0.0821630402485007,-0.16564440255487,-0.228720703237136,-0.0719639377606446,0.00615525538792946,0.263489976797407,0.0410430519005909
-0.271790830358707,-0.0497594560617148,0.038443414957702,0.17308689033345,-0.0880257695551274,-0.236867396276331,0.279514803139698,-0.273498320331903,-0.14918047375963,-0.161099988961815,0.0073772845237499,0.154768095915155,-0.241538653535945,-0.185313763189065,-0.277953255219039,0.188631365063355,-0.0628410925819978,0.165507449141892,-0.215171518302373,-0.26903836755722,-0.0352610223692332,-0.142466797866361,0.0176113546857697,-0.114649392022927,-0.192066815810113,-0.0321717245346892,-0.252780406484872,-0.139324634253601,-0.17130804694237,0.0908348185667876,-0.0621794147909366,0.0615309929921387,-0.0755719497351824,-0.169045863407789,-0.0979879673059212,-0.13387151438636,0.0782351593817056,0.222529280758274,0.10600257413515,-0.13297885173699,0.109363364548327,-0.132409179139937,-0.164760650922562,0.0626936355237226,0.117664406558317,-0.0400369951700084,0.156097170107508,0.170883329235218,-0.135946743657568,-0.261721971253507,0.119757145936398,-0.0351937477586464,0.241426006018681,0.0733184026961391,-0.193461985393335,-0.034137678420615,0.152595442621479,-0.137052713201212,0.202537284231931,-0.106753455995077,-0.223089713541046,0.14949515336426,0.134430977876566,-0.0801444568127145,0.23990716638978,0.138812953617677,0.128477134320421,0.061457577903546,0.175814779346356,-0.107252881373418,0.185884138333247,0.0147870979969962,0.0332952289298523,0.202606604697691,0.310952647645231,0.172588360020202,0.0146669724431276,0.182056292674283,0.0460540459729228,0.240175060023621
