-0.331695715709609,-0.0581502345615668,-0.218674934552713,0.00954463445618274,-0.16585737119979,-0.0326921081843863,0.250838857775585,0.207968655860201,0.111689239328687,0.115517088990391,0.0499332633211392,0.0754805885985084,-0.18971357389885,0.0994463189678062,-0.0191882861263952,-0.166364925010053,-0.0545473214554004,-0.0696781418858995,-0.110922882095452,0.155166170559793,0.278757488880633,-0.305296635205808,-0.335557043107667,0.02266792819692,-0.302367125135585,0.174167255972532,0.217181467125886,-0.171981256608389,-0.241234911423361,-0.296383198011667,0.0947704310135392,-0.10744388031593,0.310193303581919,-0.291174819494766,-0.017668345281841,-0.224185355389995,0.275528691808809,-0.117724705901824,0.292117778543718,-0.31136564411858,-0.0163960867155201,-0.330202062616071,-0.301737703202553,-0.0160576139650152,0.34515236221114,0.165746539308046,0.316507719994388,-0.114441170256406,0.0547733107890779,-0.190475278761144,0.0327773517960133,-0.0123323060783291,0.0410132322648192,0.33523350899854,0.192501581914277
-0.153397270203259,0.266456584694337,0.15031043774178,0.00904059524457381,0.138909529534256,0.245854467033039,-0.222019510809905,-0.0695535588386362,-0.0480246948432198,0.322011330439067,0.201867099248903,0.0411409984088188,0.204807046461317,0.23033527543109,0.0171106299922886,0.123384603606202,-0.359271243283271,-0.255420707591564,-0.0575072576094828,-0.00525397163878719,-0.133910853093086,-0.239595412365766,0.173643035956917,-0.00763674147227053,0.30546357256009,0.176067893413059,-0.251580986872708,-0.0584051054588254,-0.160470092098608,0.238989474868974,0.0993876379560987,0.177988502502434,-0.142009148121038,0.0576862292289602,0.234410555968213,-0.00352581858249571,-0.295933429736267,0.269257154981458,-0.298255843744927,0.11315852273996,-0.261496224651989,0.181163372057733,0.105862409654802,0.264900683468113,0.297729590664077,-0.226908847835228,-0.0364592068820361,0.264646615032883,-0.100377317705168,0.17731126138048,-0.244525530812422,0.197570628021448,0.365519691863657,-0.169327267221686,0.337467520780973
0.364307914106011,0.345619429937077,-0.32036550905557,-0.0578888499779886,-0.124560738270769,0.304819188958607,-0.166664381751821,-0.0330074524291073,0.170765457160552,-0.0301245956403656,0.0512119500867282,0.152988848311961,0.411325691017529,-0.00896437040743697,-0.0236155849299946,-0.345618155655927,0.166160553254191,-0.00599609404256869,0.0335625324174184,-0.130227695880526,-0.110275523876061,0.0736005512754177,-0.192494621210929,-0.0131215249803542,-0.100147192053584,0.0857109485577237,0.192819969032186,0.163943307064996,-0.101038142913197,-0.133922899433112,-0.21761202135024,-0.304213847327232,0.169061813362728,-0.177594456176951,-0.0229218749570604,-0.0301633057297767,-0.389093297150449,0.291999036168105,-0.0142036379028925,0.215033244272973,-0.0904502370042668,0.279560955302119,-0.0164042512622524,-0.232222059469006,-0.0905398276401285,0.290326621592714,0.0754584859275684,-0.269714117271086,0.311264108959916,-0.176714420256272,0.261617912674226,-0.168065007572156,0.31617411641048,0.306384922747474,0.15793192848102
0.158526914165141,0.0989704934198311,0.212507881866103,-0.185127303655457,0.197545506346957,0.0101872312514495,-0.223029913903846,0.142403384858559,-0.0931833378109511,0.173365316936629,0.144030723016862,-0.278983854855399,-0.191841858990942,-0.0697044224466969,0.205768442243724,0.325205079481446,-0.203815792791273,-0.303957874417228,-0.14527697181219,0.242343795140618,0.168408764497827,-0.252498850962979,-0.161295717326824,0.249662707805025,0.0475038523160042,0.268966299029882,-0.33162105075638,0.231299132963723,-0.12407223302512,0.220435585723418,0.0761331952243946,-0.117965322524877,0.203530728175697,0.214919687466081,-0.239237925098631,-0.284146131449991,0.22608215697528,0.0737363947259741,0.276703593028555,0.0907023126136205,0.0192931426282012,0.313854492795948,-0.110249209976144,0.130466519270187,-0.0372799377636308,0.349400028371717,0.23819834160514,0.073140667151023,-0.320570042775894,0.0580808400659893,-0.268025865436972,-0.303843678847048,-0.206206376793362,-0.0696317875153426,-0.0931127745894641
0.107195308611655,0.302651842104697,-0.030558826143528,-0.316908849077946,-0.0841057796560915,0.0285747427524961,0.13949681968731,0.201532081419507,0.00714870458431738,-0.0328450178220411,-0.00615677355190072,-0.206454889734501,0.188029355734425,-0.149871989475595,0.311434463758014,0.21423262564766,-0.165504930877835,0.262975040467866,0.0608186625663356,-0.167698289659625,-0.294021697711039,0.14643328319142,-0.323055520601069,-0.0176856881612756,-0.230861799965307,-0.265593561245735,-0.212956514477173,-0.248223883770944,0.170561685696944,-0.285862693432376,0.311162052692461,0.225082747295411,-0.165385116293247,0.286196781716288,-0.193966170527622,0.137033411666994,-0.206137793034041,-0.14625486739167,-0.264139342906958,-0.271262144898149,-0.221107402050437,-0.0284006678851166,0.0113768078842225,0.175075804073502,-0.324620586429205,-0.314693514706514,0.214400914883805,0.305800256283608,-0.232238557386785,0.158597447053296,-0.0126046755426206,-0.196849607969135,0.13058639993438,0.163121056468658,0.0279426176998161
0.309441220421005,0.129459268017201,-0.244850974212278,0.183573906669592,0.0516332366348738,-0.0492596406331736,0.131575869171958,-0.035260298310527,-0.248405866920906,-0.182386560097145,0.0929346818414541,-0.0679581335448071,-0.318951585250135,0.301437470235093,0.332880018548782,-0.29079479452942,-0.362056527255104,0.000781283273408717,0.0891651747716326,-0.213891422381986,-0.184962082336289,0.0820247915757805,-0.24663229699987,0.0114875890482658,-0.322000004816424,-0.338669021861836,0.189811272581505,0.227240419565801,0.0326405751995952,0.0747491826361757,0.286198314771514,-0.0729354957123838,-0.221776140122803,0.329156257747912,-0.0555274099936566,0.0702446986454231,0.0960379914846812,-0.108603099123496,-0.0558728533851149,-0.298928698966692,0.12858725257643,-0.012068179719217,0.289659521127436,0.219593427484043,0.120490322639017,0.33337165861199,0.0515684117645398,0.0692616325930636,-0.174205072287439,-0.201327232527423,0.332301894993126,0.123669728376815,0.258878538581295,0.168697207232635,0.012074319188087
0.0543606336665404,-0.240307949288024,-0.21771372650454,-0.169307590199199,-0.148439726039195,-0.134208171431694,0.138920602426718,0.0715481604101027,0.0739659980545306,-0.301511423093095,-0.0694933076767672,0.11839793997199,-0.266694047084957,0.167389759362037,0.000115349514752766,-0.0106600311379742,0.0941393662078056,-0.173687532239663,-0.00751025383040574,-0.262962566434044,0.351003133552533,-0.152940768995114,0.202387176739651,-0.278683919024717,-0.159606707507713,0.280280502997724,0.239108965721846,0.197953608106021,0.302687164413791,-0.00849301849052926,-0.00105143928262503,-0.310999616428748,-0.277091455768633,0.227074391124142,-0.109277437553102,0.237469799622384,0.278823587212602,-0.0241563735447461,-0.129996367879829,-0.193922120698606,0.298074904739371,-0.108439083070371,0.242492028417246,-0.0488287154624846,-0.0848060912565571,0.26336266776557,-0.295742915970864,0.254307116431757,0.016384150142399,-0.321783398404723,0.0472792936168717,-0.053147499054364,-0.316546464486637,-0.299210938200451,0.0109636885541199
-0.109485113054948,0.241437046585837,0.266257936388837,0.310739499791005,-0.250758605798432,-0.242335549222972,-0.0811018984820672,0.196872394700302,0.0116110614956529,0.0185400685167598,0.214939539906952,-0.329772363324369,0.0961959791428389,0.20993188489249,-0.252867051639206,0.169950381828196,0.327411707127061,0.193853243394428,-0.18626199199727,0.0753918150258226,0.275219862501414,0.0538713587271534,-0.236156311574743,-0.229913054407941,0.228217769079012,-0.307966768889895,0.144086992772218,-0.0519485845968937,-0.280546499587746,0.0955777719268144,-0.0588744080498855,0.199396233165911,-0.0479938983834798,0.0623920281760746,0.160027288013623,0.262377544864241,-0.111299924756429,0.0389057154308651,-0.0105379824133903,0.0574928083213668,-0.0414238659815752,0.0902548565118661,-0.258063252453854,0.131217974453562,0.201714082641998,-0.327419525042651,-0.262090157083422,-0.335562589002709,0.0643739502384426,-0.175243863894812,0.191458624004662,-0.281680335501427,0.318888859973494,-0.298489410774508,-0.124850751214563
0.105167676747071,0.100919376028347,0.281557196358574,0.305803595688461,-0.277751619897112,-0.0734979862308201,0.136709236988311,-0.0298206834265475,-0.116749159855644,0.235944462811222,-0.17242990340487,0.027430070215168,-0.200941585237467,-0.298488280586376,-0.178743621718402,0.301343269180981,0.139204221764081,-0.0553357983934486,0.267993981631749,-0.157539902400838,-0.360663691087793,0.148033935472902,0.223153490739941,0.199033161121834,0.0267437706937161,-0.295864158142968,-0.185554360255906,-0.233163371657933,-0.240208387072439,-0.0393805117523655,0.368390776673493,-0.293082660034437,0.0972024449771598,0.0414528195010051,0.0581602298218333,-0.102607187516398,-0.389031995061989,0.0304486870914627,-0.171522620960119,-0.265725350591535,0.143379016143755,0.181915177884087,0.0807615616020467,0.284336203098556,-0.270916077038952,0.168400640373623,0.0207927209974324,-0.0943422601906753,-0.0928741136077513,-0.166295573014026,-0.175710252100904,0.143007075526433,-0.287351010869607,0.0407836078494387,0.309444193613272
0.289665995734276,-0.0696715996981733,0.174510433549003,-0.0246139423547587,-0.2344445387799,0.0850480217589171,-0.158796622485349,0.318250263420799,0.0309680504722209,0.20859458988169,-0.159006792518128,0.150164004428825,0.325129181942206,0.168336235538241,0.265043863214668,-0.0226917712410445,-0.207386494264165,-0.304713574968298,-0.154308868363127,0.319328575960515,0.26494276446918,0.311115464207238,0.231098587983073,0.16535342789311,0.0204640864303159,-0.231621312251678,-0.201461649934575,0.19144620411296,0.0731860749736449,-0.0889252521783578,0.0789385556146202,-0.0778564194019806,0.036317751410646,-0.0854307350094334,0.22670928211434,0.109626364682146,-0.280063258806957,0.024894678107669,-0.0772088045385709,-0.254836030675513,0.297810572626338,-0.175117728274165,0.281474936881992,-0.123095980894566,0.0842391015563314,0.142766457459429,0.184445253958933,-0.324176229368151,-0.261573729029785,-0.171088701527871,0.201710892846433,0.25674140894097,0.198094495364381,-0.268814995415053,-0.196521801178193
-0.310457408421531,-0.305928710645286,-0.0788322833938848,-0.096270801408989,-0.0410617454593452,0.139319580970525,-0.271212802484669,-0.106342656902375,-0.18614080596513,-0.206900599446636,-0.0719823574179204,0.0973794255440877,-0.0981566632048135,0.33203570557981,-0.12723039365208,-0.0216156285004214,-0.195512113665194,-0.0623865023272631,0.312571075275374,0.351581979316905,-0.301773127115447,0.0834829589685305,0.2869471301607,0.190632076465313,-0.32319274375769,0.0606815439002158,-0.31686265383136,-0.175097002576995,-0.321672740800818,0.0315708135884334,-0.152163170861549,0.129254224022826,0.0217891133063585,0.151730330068194,-0.109034783058537,-0.28928363601667,0.288095520681589,-0.056992253247984,-0.191623640562762,0.232569742309036,-0.0699390810604454,0.198081494374558,0.0334435673263162,-0.274088493364647,0.336377233127461,0.202113220885573,-0.115925769989589,-0.199046699737157,-0.0363614046207719,-0.147416516809917,0.216231456065937,-0.0285635876576632,-0.220350434381632,-0.227050483858634,-0.178139507371453
-0.218526552780653,-0.244991069538547,-0.168226293038152,0.00960749325432288,-0.0746912635326633,0.117695587365834,-0.244757676771292,0.183513712601866,0.2114680170757,0.225988602169872,-0.0613593858249492,0.0966058461803845,0.206795086658988,-0.0675600556188881,-0.0125351656364462,0.178650994800413,-0.262544828687014,-0.106396229395313,0.362518144722809,0.227804813101487,-0.272179972853794,-0.201443146993051,0.12377320407154,-0.312855909333302,0.212670963177343,-0.201723428913359,-0.199299545921391,-0.315053383213506,-0.0836384754414439,0.00874050684436024,-0.223586887092914,-0.160633687329975,-0.284512176007739,-0.275210003710409,0.0815910794816559,0.101063261093172,-0.291230855945945,-0.284528454469725,-0.309408011325648,-0.0772223970689461,-0.0128418446777521,0.0705226082441163,-0.257145400539192,0.140919868047874,-0.256271854393265,-0.0738769667497562,0.317045584606774,0.00496833845016613,0.110882262822881,0.191415827479949,0.353397166661751,0.351875095754987,0.040856416026523,-0.0548798075582484,0.102529173567783
-0.216664458831728,-0.177570818854839,-0.0351797534453407,-0.143582941852722,0.205246726188035,-0.0181859488084437,-0.308404186243247,-0.0855693253008361,-0.000878469152448887,-0.0652839905313669,0.124051566293091,0.245626996217567,0.0688285268826053,-0.0564993155332355,-0.168427382045805,0.291787713532338,0.27636050898906,0.0665340621729904,0.213539244588428,0.330704891839745,0.320517176427413,0.191086970528358,0.146763530931457,0.175788293770561,0.208472246583743,-0.0159395628306054,-0.0572834429401014,0.104749503543214,-0.208643131613784,0.179341530244353,-0.282520842339003,-0.24420769456362,0.0623644490204797,0.319288650571548,-0.260415963066221,0.0546728029956475,0.273163983278999,0.251460992633549,0.0618993682297512,0.232440653353598,0.273982769432387,-0.0591825061647336,-0.260201242323949,-0.0730327325488474,-0.302757903639465,0.143748146733332,0.239493068113451,-0.149216852854266,-0.183957419063329,0.294687379551291,0.278286091930279,0.0945584697289639,-0.208090579482458,-0.0722464512696569,0.287349103262263
0.175620871773231,-0.291451333483131,0.0397480698092656,-0.310201043025617,0.255608631848255,-0.230814635822453,-0.330836498843112,0.174329697359304,0.336179924318887,-0.0757656281889487,0.0360159440511618,-0.142513592002397,-0.283301422454984,-0.0639468908434672,0.0105595782596516,-0.00852046495426785,0.0715221233852471,0.275030090281206,-0.306923318469676,0.347391302071909,-0.0461331555851829,-0.00687189283717728,0.23483738979708,0.04995181080554,-0.293217183083763,-0.0801869025426135,-0.156786707917371,0.227780189182291,0.185675203001766,0.248989549105398,-0.263966373570774,0.0580707724897279,0.0103209640378404,0.325775482655681,0.327378812046381,-0.0153771336526913,0.255323988599922,0.021440304282172,-0.29092521016028,-0.346076056283074,-0.013607294148202,-0.0875474735774555,0.25939978759647,0.0164994758810938,-0.233651272382875,-0.224047331988819,0.251299681053712,-0.0578446362076276,-0.288797714555281,-0.231373117647236,0.0205934788838592,0.0939324571483364,-0.0882950559298431,-0.0662651156419848,0.1897481640266
-0.159284777750025,-0.123885147170521,-0.397266864252799,-0.161774665946783,-0.290879417621164,-0.333028752675027,-0.178797757396633,0.00352832054173763,-0.351458868393652,0.222370523140709,0.0885116873786424,-0.0501966703978814,-0.143328868546324,0.242671789049899,0.148114358974103,-0.115221786407437,0.289949541862415,-0.0477136262320065,0.0601118814175781,0.164283922652433,0.0282410663571395,-0.108240654710742,0.0712244140303986,0.0289581896878063,-0.267362981996245,-0.235888505592049,-0.0239523790591522,0.295386253834294,0.295021578365743,-0.0838543341099055,-0.334175017912733,0.105866761423697,-0.0487722499616475,0.205556773075905,-0.0417617859226834,0.185556606738095,0.195879462977154,-0.261514471577472,-0.0883108805688244,-0.353669534724593,-0.335961469174776,-0.0572120169147245,0.0344447749145769,-0.199232067520491,-0.247418545132012,-0.0620047524697474,-0.120991579990636,0.0886679840749857,-0.0482635566693429,-0.15640060153011,-0.134630724272242,0.311702945966094,0.0562174012043946,-0.289715768470339,-0.299822469482975
-0.194205096562169,-0.254607832081389,-0.111329161076721,0.0425613442234976,0.0630686351076932,0.163211609850441,0.259814847136921,-0.177334449935952,-0.0147326068660953,0.248208677607792,0.00105023137442962,-0.10381658351306,-0.0320282944242802,-0.318520352636326,0.336563249472187,-0.282341441547999,0.273041201511836,-0.277419146529565,0.00387048288456529,-0.238421102927559,-0.35309959233457,0.220478136145371,0.0571209923134849,0.127862590778045,-0.277939720663897,-0.0597384343962498,0.187568655773092,-0.333138397720161,-0.157323276853203,-0.252274232671457,0.164274460055921,0.0214621249720736,-0.216862441616319,-0.0757868884447584,0.0428900961814666,-0.28610308492683,0.294615870169987,0.281515679558314,-0.297546038663974,0.0441307518308666,-0.105937438596282,-0.171168415015257,-0.0451232510337002,-0.0448839821018002,-0.313679691738801,-0.128083023505639,-0.337832638045708,0.202085502210209,0.0694110795746879,-0.233083302182567,-0.0205540037325455,0.279736530723091,0.0418732432951309,-0.0640937866431047,-0.232073699467526
0.219777440857563,-0.0346016990452876,0.303762681222034,-0.243349369172136,0.363195295331878,0.145363370949176,-0.238442715797965,0.193828169822822,0.0418837573774041,-0.367671850448178,-0.267050159579842,-0.138705135854667,-0.147370796879012,0.241447072238636,0.283998036328462,-0.136536727956778,-0.276382713715787,0.102283495055322,-0.0593554763241964,-0.0196195246008359,-0.264890533392826,-0.211652415184041,0.204560443028333,0.260354732644937,0.24249645158387,-0.00396426792582182,0.149386151524221,0.00258570280582568,0.21306382938343,0.0441507905686091,0.247915513586945,0.369853616852804,-0.270419396443653,-0.0532900716625114,0.134338004278128,-0.0795472757512854,0.091933986567826,-0.0640429486238939,0.0654425820081456,0.0331203130640222,-0.0961756158266215,-0.191711570700703,0.115547841340665,0.278335484570504,-0.175991557199337,0.241946078787579,-0.0233310251535802,-0.261150068241598,-0.308873384047488,-0.25559458900132,-0.0618316476557805,0.27148412025876,-0.0617540796435178,0.259278037123254,0.276032322151495
0.0252335768598415,-0.152825212578447,-0.304425000914251,0.156185222285964,0.0205318568490706,0.21417108474006,-0.0322123822295508,0.0137317170088585,-0.136662011916054,0.16341634908136,-0.0393365371730647,-0.177799814406062,-0.318393145946375,0.344899431617082,0.140778548483758,0.328950837310466,-0.0971223495884309,0.288174542308154,0.22744373992336,0.0978916745605252,-0.0170293798259107,-0.335229696665315,0.166339669022793,0.163806449168473,-0.221317239318684,-0.297875888702651,-0.252679062171236,-0.0031999239009593,-0.0610623606261437,-0.161607304391273,-0.291648349310062,0.360003688866249,-0.123244008120279,-0.0652318607794623,0.0891143330741769,0.0454209657954709,-0.0402731181944937,-0.338644411501624,-0.181834118466274,0.087790701328837,-0.0665562540864092,0.354514052609932,0.0929766768282562,-0.101189065696167,0.260757834429733,0.281712389966383,0.241131743774326,-0.116782647349569,-0.290119899578312,-0.132768307724722,0.313140138373442,0.0511064094842379,-0.119925986910012,-0.311157453812631,-0.0432212755396737
0.36498634006643,-0.262844921635491,0.0525700295040539,-0.196897412168494,-0.250933632902572,-0.278132990064262,-0.225624819893573,0.066817919280662,-0.265753196505737,-0.0222177075734307,0.0119577714883586,0.156936069075611,-0.180377425287674,-0.0925702035565458,-0.0647182417843663,0.329845578841157,0.331722175770575,-0.0677903273911445,-0.141593070673466,-0.187024484067645,0.19245587424334,0.0627004964032209,-0.101560176489135,0.1276919790654,-0.197498001764203,0.0346171782775823,-0.17531051642442,-0.330364596436039,0.185434212000142,-0.23916421294352,-0.163901778499131,-0.0251819661949024,-0.272215340130254,0.190387629119137,-0.164471174159309,-0.150840974993761,0.0226538953255677,-0.0150922615488543,0.300360179761235,0.319081531988972,-0.298277092330098,-0.0753297000760259,-0.242384888742333,-0.0444669770640457,-0.13058235186012,-0.274401125762583,-0.0706600700792904,0.296088050269277,0.327038855217235,0.241348509278993,-0.0199654020628369,-0.135540413509864,0.220886327481251,-0.33080016133521,0.165630009237862
-0.282356600179368,-0.293709475977421,-0.110133242190161,-0.121398557875688,0.283252443461793,0.177517113561846,0.235970205700983,0.189325575772097,-0.0918085405488316,0.129256038779669,0.106512541960268,-0.321256014839465,-0.147095157830473,0.233233932126846,-0.185214738143433,0.129947167306002,0.300317132024907,0.0112594857752367,-0.0607468315125428,0.143909367033813,-0.339303276903386,-0.0270856605096046,0.122895550372067,0.37927244097188,0.0777558113790939,-0.307619227724328,-0.263583506480394,-0.00285350024340347,-0.103030394307462,-0.0383915438938826,0.19108874262544,-0.146100258798869,-0.164312613690937,-0.321152519123258,0.255521676570018,0.125487018296443,-0.236718368122847,-0.139806187058395,0.149298224975216,0.260256819310874,0.0736496648402151,0.0105027987761957,0.371967830772683,0.275175210931274,-0.142722774237859,-0.0260470526563844,0.233596194039102,0.154109922978542,0.0502717434527548,0.0803883592829024,-0.346663688233338,0.00544197685670841,-0.000579765893111023,0.337124913366439,-0.00818808275779523
-0.313615030625081,0.0523503285725643,0.307330345808145,0.0199013419667156,-0.284363006950712,0.0896621956619809,-0.0168224231382157,-0.26260335090026,0.346234355749184,-0.0698602936102836,0.123823967540279,-0.150644994100043,-0.269172420709296,-0.251106291458021,0.326867154089974,0.142441206898766,-0.239352087929418,0.282675925290019,-0.235901389812215,-0.253021644641755,0.110206708007095,0.271698279236951,-0.140317438204304,-0.130622833903256,-0.32870810647935,-0.146658546139845,-0.256445339794375,-0.265834304231616,0.0400011453203423,0.271102844136603,-0.0963594772898892,-0.224391875330821,-0.055359859181947,0.102238896655676,0.0489925105176064,0.227798975228706,0.0142305629017475,0.315730345336097,0.191622201240997,0.0956467273442825,-0.0104100772105527,-0.181884130232389,-0.12847000538003,0.161101081418483,-0.0516294478907823,0.264793589315275,-0.138409869485376,0.306928771786959,-0.0573534958499223,0.125236047895785,0.27152289698277,0.168851378500678,0.0798127022901863,0.281315103295912,-0.189867560122356
0.312316776503473,0.252945421180346,0.294383424669832,0.198654585309298,-0.120987669766481,-0.281820944389112,-0.223350514537394,-0.131609915129856,-0.287725505815469,0.0899229478159447,0.237886149499634,-0.159343294250484,-0.1461689947901,0.153648368854456,-0.27487926763834,-0.177615218011251,0.183516072240029,-0.00586984959876649,-0.241904400274765,-0.312558489349273,-0.21176839645288,0.0134745506313819,0.0998905930218034,0.212987891414585,-0.229986137622695,-0.103337262000386,0.054937448322375,-0.315895309445121,-0.25105650960405,0.310470708276423,-0.0886642652588425,-0.0741768944725972,0.0692466214373279,0.28897054772177,0.157753898320813,-0.153688521993453,0.241839760741406,0.0609067939775294,-0.10280526423912,0.250192907814378,0.309743951849868,-0.0149861290517607,-0.289902227483955,-0.128335027285305,-0.222434861507833,-0.124910209327959,-0.0805064009272804,0.214762369099586,-0.283451828941084,-0.288075002328548,-0.0750635936460612,-0.234853433277063,-0.165287858479473,-0.144693128077782,-0.105633198069214
0.257570800899383,0.123320427227613,0.190798944103315,-0.317465846536731,-0.331044649842859,0.228507359355274,0.179264340546231,0.176976331542291,-0.0477500064478578,-0.334752711063181,-0.0672029671290582,0.172382780686455,-0.0393820374471156,-0.181909099852987,-0.101381683387948,0.0954199944620912,0.330192164485189,-0.303202310402911,-0.236661276426833,-0.323259758054476,-0.23838828456928,-0.327968592244118,0.181591697636013,0.0337146297961003,0.30054789675751,0.0723098953463211,0.00505879328676744,0.242140723046319,-0.20516826157197,-0.0809677895686788,0.211157964941131,0.162573883501443,-0.100330884426989,-0.263718892342776,0.118410737041783,0.312109425332163,0.019304374234347,0.298016029173335,-0.297044092450469,-0.180371393975477,-0.0445341937405219,-0.147962199688761,0.00310059586986658,-0.135748808706294,0.244300249296206,-0.11958673313906,-0.0494029323310096,-0.245478751734284,0.301941707107559,0.00476704005768615,0.0349165921341846,0.0984229790169953,0.225611937063138,-0.225465318474891,0.0381510276554
0.0156805628247808,0.0421630083253616,0.186261859010911,-0.188525256094327,-0.0608046586189172,0.0348645024509016,-0.335664031723053,-0.279226780968338,0.211416049435605,-0.0894037445281171,0.271897481731094,-0.0505531288879875,-0.0512763066557114,-0.345859649668483,-0.0242637760783116,-0.278457468544273,-0.105484360062729,0.193617412711074,-0.27687346745717,-0.0965513829082578,0.0893012620844687,-0.181235902477213,0.104534437132278,0.275798825996708,-0.198612524870429,0.206078677519847,-0.305379500338884,-0.150361993022874,-0.339689641007489,-0.320201043208845,0.157129185443682,0.219687755062138,-0.154535920092304,0.190929116429515,0.290252567102298,-0.199429258245099,-0.178740195101592,0.0331773695476451,0.204763556195988,0.154796585504666,0.333935638808981,-0.297908650252681,-0.0213394723087042,-0.149302329282013,-0.0828772037914344,-0.180659659399997,-0.263569798556319,0.314447092378205,-0.0224685025645287,0.284464190197725,0.240161166080672,0.325407931945023,-0.311769407496835,-0.0419189522387989,-0.0222290000501422
0.0784762699240227,-0.184819894379797,-0.308018728993462,-0.12394219672425,0.359378813041848,0.166781040169098,0.0100019424113751,-0.185069805584846,0.154496960538027,-0.201061249757821,-0.237959724410547,-0.0911421593181111,0.0453856607759595,0.129295866536502,-0.203044709264402,0.229366684047347,0.199836485293061,0.225551942795627,-0.26039275762206,-0.144705037707185,0.351635810954522,-0.33120735080676,-0.0212939845650019,-0.156359520507722,0.113936766913083,-0.302372681569681,-0.00299919610575659,-0.142277062588302,0.167171333570198,-0.341832694776952,-0.259023732939878,0.00934213325133296,-0.182917285595857,0.248858069847477,-0.0733554981656473,0.145503625618496,0.290436361471884,0.265079565640339,0.101569174412245,0.124184496103904,0.121030818330691,-0.230234045562205,-0.260288838393621,-0.0883738700883775,-0.30351979288141,0.134298906892056,0.121626328348917,0.187380864177927,0.171292725566868,0.292796762115571,-0.261317415032565,0.178755298045925,0.143277616151539,-0.0824195714317838,-0.238788221176404
-0.00165380989880892,-0.111187778720565,-0.0131201433172652,0.206366258964727,0.194414750095515,-0.0946069457085741,-0.110067646545972,0.321430298756991,-0.274951477910665,-0.181391758034488,-0.29591689115656,-0.091150030000404,0.11662224230424,-0.141372629659916,0.0977353137628756,-0.216961145572375,-0.168282152853155,-0.190189885495224,0.0511481579139785,-0.121240918000031,-0.325033982059689,0.148236069309914,-0.233861805539726,-0.0712389563322463,-0.243527445363945,0.169714617377911,0.033334051065643,-0.264177691486592,0.259413107277012,-0.184188879396666,-0.156732092725052,0.32404532268839,0.284280219269031,0.112578649224309,-0.294693902084932,0.159665875204075,-0.307925656224211,-0.268305658351284,-0.189413348218671,0.193851051480113,-0.250639194038362,0.160127839490385,0.268992970813946,0.24230199227705,0.326121870115241,-0.0595073910981618,-0.0254186429359431,-0.144994269899179,0.313695751708952,-0.103331899458728,0.265915261288635,-0.0969728158697366,0.240699464576382,-0.0541729743624324,-0.193863234135452
-0.224807322212031,0.132353720550372,-0.00282192261764595,-0.204895062637135,0.227781630789687,-0.346849875602247,0.0978191910799753,0.334769070380784,0.280347772658736,-0.324166160169472,-0.114725133232271,-0.201700467669499,0.242803026849248,0.39630475752696,0.0146181036001712,0.333930209605059,-0.0520887290575595,0.317310717643751,-0.128855973505744,-0.369268237637642,0.276130278135811,-0.205438332336052,-0.0510325633025197,0.115263151931527,-0.0350519147485745,0.093789677124056,0.244739326272396,0.119973278405494,0.14522442296192,0.0886395536268009,-0.0119375335352442,-0.137476090542808,0.0561750786459158,0.185490233280678,0.00321988809478659,-0.225388553045005,0.348172237625371,-0.213005427440298,-0.0930997715740718,0.0551856361554669,0.178221425092837,-0.0930296517808012,0.184793054627891,0.216284174998213,0.0849989378599067,-0.0664400697491904,0.239799741746153,-0.256767726124842,0.289106952138647,0.140283953028683,-0.269260959027984,-0.0651160422494259,0.144064510225844,-0.0144509374911245,-0.0737330091511144
0.0419067625476572,0.259897785948091,-0.102252282221006,-0.22316088594313,-0.228852982403561,0.0857945261237405,0.0980300198049554,-0.201272835533143,0.223424293681623,-0.111194985726401,-0.130778849582688,-0.2853453229852,-0.350411427794231,0.208947987439129,0.137031588146006,0.155839887840046,0.336875139544446,-0.167253577591448,0.167377687040353,-0.316862819740708,0.282782713141854,0.0135357866426763,0.211546085556403,0.176227109060811,0.170360617560779,-0.348006926664325,0.0689336607418125,0.233480155000851,0.0795875384949747,-0.36162999172419,0.175551252278093,0.283539412710859,0.162480528520707,0.140950859363288,-0.30551030641013,0.203858164003521,-0.0563478174697687,-0.330230127182274,-0.189542009649652,-0.318432487509786,0.0368730486481323,-0.099661862214785,0.22137459320462,0.103555011909613,-0.199708498911478,-0.107732346387831,-0.0397131600773506,0.320457850920641,0.174772522719841,0.128948930151133,0.188969800381893,0.0402826086911193,-0.176772265093328,0.0328188756498351,-0.113256733776748
0.102418907011087,-0.249256818564691,-0.076791049542559,-0.311173142613874,0.143813284258601,-0.0318609351358158,-0.319636267398154,0.111093159367939,0.0678752288396751,-0.00288416930465057,-0.195842485340877,0.309831048125208,-0.0297530752573426,-0.00989718196558377,0.25895635450589,0.290046269216591,0.107574179628293,-0.0177410004176955,-0.292799146934374,-0.0315230531180136,-0.0933545194828827,-0.133891504457511,-0.0506639216276558,0.207506788601773,-0.302650908209304,-0.249840844937576,0.162127460537298,0.0358416968215943,-0.10393476370744,-0.225871362064482,-0.287449162076364,-0.26377988994103,0.13218528988724,0.301029019375733,0.211697535515306,-0.11233301538288,0.204994397562061,0.119661782399307,0.0834859651338238,0.29875102618148,-0.317970292900818,-0.230818151394708,0.10162818231344,0.217713741134604,0.304620758941179,0.195354423702029,0.287519175209967,-0.0775243111619094,0.279627631503566,0.147595208545434,0.320802425308031,-0.0146975319083657,-0.146209233291103,-0.209773666663286,0.153230837075946
-0.113175105289758,-0.234290852366159,-0.0254829272178207,-0.286059391008499,0.0418971771294788,-0.205722539844981,0.23254133409234,-0.108706645492209,0.0208202763120456,0.0587556488533492,-0.305002180281263,0.0429421356203848,0.156694685077717,-0.0478137139468708,-0.295316794272045,0.34093969679966,0.00349713503262602,0.302017599486471,-0.214523352558051,0.0969585432869518,0.0242272657120663,0.166765525074419,0.263983384957467,-0.273988771532705,0.192270211387066,-0.219167635494352,-0.0897019715476053,0.281346122595688,-0.316973968993127,-0.271338928316559,0.283503828194612,-0.332386581193736,-0.257972761681075,-0.136925675058527,0.144476239590269,-0.293913473252019,-0.00133063963618856,0.068812289291218,-0.101861649264813,-0.251584459590587,-0.0952219696163585,0.0426534226988604,0.186252283960433,-0.302183982263257,0.00899743860707386,-0.0479097684105566,-0.0106320522777328,-0.31381232524548,0.248109621933856,0.343226080231919,0.211804347204267,0.138523169537278,0.0395040176983121,-0.0243859299436277,0.160632996862509
-0.121019135402913,-0.244132861836064,-0.00201243946891608,-0.326844761412768,-0.0609745757638615,-0.197582729501401,0.0629157419941194,0.254015218072851,0.0550611221296496,-0.0551760337213752,0.35019143926771,0.273318139393784,-0.317865589148172,-0.221499080379039,-0.366998050213261,-0.242862179035506,-0.0309869271456681,0.376213963094414,0.075633536027504,-0.167229864472548,0.276430609302759,-0.143331304298935,-0.137711460647055,0.247852558171424,-0.332259918261181,-0.0553484458290361,0.177088095586539,0.218154677475092,0.123022198316346,0.212577044495802,-0.179341024225058,-0.208976352598881,-0.113707794546814,-0.196020332577565,0.115311695416409,-0.0598523343410905,-0.100551264931762,0.196047559760371,0.149616736152639,-0.282205017396517,-0.093212177204916,0.223844793727382,-0.0175915354596346,0.0574084013086755,-0.292598950201021,0.171384260971544,-0.136400038018666,0.238531864479262,-0.0953095359079185,0.130516414292558,-0.0962983108841077,0.0227582273096054,0.352246689854561,-0.324013101565904,0.0448430742228057
-0.339732351550547,0.0191659169952696,-0.200445513754716,0.0548634300455231,-0.261309501881097,-0.0202773468946244,-0.165415116437105,0.1522214156056,-0.115283152274347,0.0290861330783506,-0.324315759526054,0.182710780288493,-0.06406299088395,-0.188339620968614,0.337620071131303,0.375631121465215,-0.0865876946312592,0.304049453594291,0.272589943304989,-0.330652007633138,-0.0702454915848939,-0.250083631281821,0.274816778928048,0.18638562565482,0.254670622430381,0.204029725927629,0.114267325607985,0.330539867087304,0.280074284353485,-0.047343314047533,-0.178242350936381,0.181227083057987,-0.0768344149012627,-0.0839771155429013,-0.174370563862285,0.0608519894475602,-0.227486715999167,0.0816070150279168,0.273512840603242,0.0535930907141883,-0.0394652406994015,-0.0194982762777438,0.167827356377309,0.182692043360924,-0.209639126243524,0.252457908257514,0.175245089038532,-0.309041956637166,-0.0960470836665449,0.174716165690395,-0.238495613644199,-0.261237451769235,0.199578979446579,-0.151680028757724,0.0442027536600649
-0.252588712718721,-0.0553218319351121,-0.0549937915207711,0.308044325187615,-0.232212636823829,0.109136608979129,-0.238078109718525,0.143295168579566,-0.174958902636025,0.223213404352927,0.0294930224421938,0.114148205807606,0.0282246953772752,0.240142569143861,0.327905243601379,0.015831520450333,-0.0652940722278514,0.220132702422402,-0.275862850311989,0.131701046993213,0.146902973437202,0.347874944361516,0.164555240671416,0.00655316914513647,-0.16583858404906,-0.0495876974516919,0.222210739165431,0.148226607311505,-0.327252186506618,0.250521416682575,-0.0276010702778142,-0.125330571812252,-0.289569029113768,0.239878554276408,-0.187126089234865,-0.0624738949399458,-0.0937465657579589,-0.0420743886686211,0.259300008099143,0.0845403131480102,0.122647755569397,-0.253537243269518,-0.209013966726866,-0.310868589773834,0.257311625995599,0.315407860443265,0.120418977196995,0.0292260988649232,-0.111416544404427,0.242832387219942,-0.284779807123263,0.305079866390714,0.100683045266235,-0.303359074612429,0.248325468261608
0.049899389709357,-0.244968841598933,0.253412978131906,0.331566565478516,-0.00564070813222248,-0.373785363270213,0.0683853108119429,-0.238018559285291,-0.144091613769337,-0.154158188600988,-0.0950852197947898,-0.176557005491153,0.254016158810987,0.105528341723262,0.279988379314053,-0.100802009631318,-0.0556011652090712,-0.170404467594859,-0.248033185541091,-0.118637142820603,0.227540069653986,0.0663959944108168,0.132101122785535,-0.310421480714201,0.362314125284209,0.000266776365738618,0.212603346022327,0.157241922827229,0.254762824272767,-0.229858485207243,0.368082700363783,0.0987430730677514,0.0779373069553628,0.21431499475729,-0.356372358482795,0.167433616554529,-0.0671116182307086,0.217648455354793,-0.201318945733953,0.104128966696999,0.310812471667875,0.27788764712837,-0.0122908205049529,-0.03015789334379,-0.16161941937645,-0.0438435351496293,0.294233259117177,-0.0217398598013317,0.177646815076447,0.100389960501034,-0.0458320732405048,0.193155877379183,-0.179885302402745,-0.230601621713063,-0.306350875135446
0.284932172482902,-0.218913559802002,-0.159987038630772,0.280752206143166,-0.205631712922581,0.275821013945543,-0.104403543996479,-0.115428179764748,0.0941763665082653,0.247372991347875,0.234862605287642,-0.183795823307019,0.056106666296337,-0.0822492375826549,0.0660028721399408,0.0809061136117293,-0.219302680471733,-0.151860356551179,0.0681399959890752,-0.0808215668659543,-0.0342677329302253,-0.0615755885021331,0.262982138037723,-0.107340569333542,-0.223748724744424,0.193176394369621,0.276508049309619,-0.191541423953603,0.0240925657159446,0.204059482891386,-0.238469727579832,-0.136905836117736,0.251015394965485,-0.211246799368274,-0.153596438589673,0.212512495373992,0.0903967824654927,-0.201735200091463,-0.0559398756490617,0.0776056004946433,-0.0836511622341541,0.211729975446745,0.272386581214992,0.0476349230367826,0.249252489143025,0.281679746552917,-0.206835211913109,0.263691472324803,0.298886472944986,-0.231824750694163,-0.314073816223916,-0.307497939093128,0.218997796522369,0.296929089466157,0.261245345897494
-0.220549926636216,0.243332711425853,0.280554954994953,0.31005658441773,0.141621241933826,0.112864759857154,0.0572306824357988,0.285522044583848,-0.152472069505669,0.281590830439195,-0.03972502809925,0.296881423647836,0.221754315384128,-0.213394201803358,-0.171604720887985,0.0637771075833732,0.268875434824553,-0.0113636326859739,0.146354110081584,-0.299153196816627,0.0400845132064344,-0.198587656200335,0.102506855073678,0.0573068269232432,-0.0164223332741008,-0.312577212220961,-0.054978308875183,0.277410992950481,0.311715450387984,-0.0886837690123241,0.0175353275723869,0.241546257116431,0.129587308784571,0.23759921515975,-0.202275780471556,0.229794094475278,0.214843385768877,0.252061062005344,-0.171653147282549,0.059293950339081,0.206462584511923,-0.294457750670363,0.0607234872481143,-0.256074811599625,-0.175449201220943,-0.203858894561053,-0.375663910384865,-0.156068027342076,0.138905836272736,-0.0438912850889263,0.180287728082776,0.149446432350773,0.182626616351967,0.334168449328484,0.0840287119616433
-0.039827141550724,-0.130221835650458,0.303931858770125,-0.0806416522300323,-0.256274202821888,-0.158843820281382,-0.267162532233937,0.0886392803754651,-0.0785245289680924,0.170389768935201,0.325624209647592,-0.317331185558097,0.22382346062782,-0.047977253473065,-0.145607128805033,0.0286907339617103,0.147291739676975,0.290789092155377,-0.276568082116187,-0.250468525139938,-0.298370839470117,-0.264356696888057,-0.205757654951239,0.194795691195576,0.146636912099473,0.160410782340657,0.157728118503827,0.240957910197034,-0.00905053357113368,0.174546143520754,0.303426787598973,0.0216570397439625,-0.133684744128589,0.290256281724428,-0.0239207442917456,0.0852377955741588,-0.276836880216581,0.288438525371944,0.00854561397611707,0.246130161649266,0.148902767501698,0.0159555593027089,0.219747239050871,0.302811278693822,0.199097455761691,0.247741710467358,0.202799680294481,-0.295588563660783,0.135921698755194,0.280180789304056,0.0498450240403032,-0.00945767276969019,-0.226933463389508,0.0269085952874423,-0.144311050570341
0.302607642999317,-0.153049594703177,0.0851622309271396,0.160101469910678,-0.103318401159086,-0.151386007954117,-0.155784460207415,-0.154161553917338,0.323908968646789,-0.0374223424917112,-0.101956027990271,0.279099119611055,-0.23329430911247,0.233218424332909,-0.201025395078812,0.254340666147372,-0.342025599429203,-0.233547018137957,-0.0634858922260877,0.152102759011493,0.0840701391826695,0.261379224298797,-0.14534358551543,-0.295415199982078,0.336417649672217,0.124105067321658,-0.245423947920808,0.294309529098492,0.10806001923088,0.222474124872526,-0.114112321719537,-0.111643155089053,-0.0492800356620087,0.0728267338067338,0.264913304037693,-0.132743711619297,-0.178569920306759,-0.135485263664448,0.25385023013812,0.152334561932063,0.195630441017787,-0.0804608633290084,0.0618401231411132,-0.124048972857612,-0.286130153170637,0.169920267444112,0.211214843992564,0.0253772284956095,-0.248912797543707,-0.174871616055493,-0.0802364340228011,0.307653434069699,0.292503541018123,-0.264354662615629,-0.311986326481861
-0.288639061780823,0.326259493032913,0.0337450258453493,-0.252981584963781,-0.0246665913270166,-0.0759122828850691,0.166470714601387,0.112027786246181,-0.124458630669058,-0.0408625754685468,0.0526519575041449,-0.0290250446674496,0.280335277457871,-0.199190329459399,-0.287109856929156,-0.303280885726587,-0.0280822498760986,-0.315352912261967,-0.0599530479069888,0.343069054939105,-0.207804869542164,0.100553063418509,-0.0400253528721007,0.0636181517491558,0.243902532114628,0.279363383643344,0.077391242017641,0.203187342973176,-0.0120077972687683,0.311928042670916,-0.0975034052144252,-0.252726559473228,-0.021846505539131,0.360745405209263,0.132727221509891,-0.141324813619952,0.247046068250105,0.182741594029558,0.280942234897547,0.308179405823093,0.259660046476865,0.165288867697968,0.287965711337637,0.259727895278908,0.169417194115592,-0.231585511425401,0.226209291423286,-0.20650026223011,0.179882214805199,-0.269209099029049,-0.0871117333820015,0.138795506039813,0.144040820858923,0.0813733161905313,-0.183630917574803
0.246245421930425,-0.0112816433817116,-0.104838265427676,-0.00933279281052811,0.00716757576465971,-0.198150555620471,-0.13351644779707,0.100122768692652,-0.0840061318920141,0.025125240383028,-0.0743239331342067,0.104581511688354,0.195902692245772,0.3259541550282,-0.252207936666715,-0.250113890247397,-0.018981368136152,-0.336100566929793,0.0550525740300387,-0.155770835586321,-0.323657569285188,-0.306238620004681,0.0854316850706142,0.344813488027943,0.26603411482513,-0.0153334378023613,-0.163216447481496,-0.0500867810083357,-0.291971808252059,0.182591282599747,0.0866915473312554,-0.265121071993168,-0.138699035435866,-0.153340467339953,-0.308921595063122,0.0535653359419347,0.227114489837737,-0.152080877687756,0.0524605837581645,0.14515141109864,-0.067738424270155,-0.330662281231011,-0.226121778596441,0.35023198549202,-0.117753641855803,-0.105422388612401,0.0742843116150194,-0.206115166179522,-0.0950813679228563,-0.321979340172477,0.275697343715944,0.228535183969224,0.192387032164286,-0.322702645514191,0.267665326664474
0.0976586678325198,-0.0303892986189526,0.00291150499579643,-0.246033005951173,0.0250483064136391,-0.260088368544747,0.025923333897346,0.165849923347574,0.0599904633718775,0.247132009581781,-0.0700682001114245,-0.290171489179795,0.112864097425789,0.340085126303245,-0.226388386605394,0.321081095330159,0.324757717677243,0.173305888373679,-0.290551196588445,0.0166795913027605,-0.149935652785223,-0.179749837149496,0.145843272796487,-0.0984170551303731,0.283780618858792,0.225779765385337,-0.159910414890951,-0.0118325310041675,-0.236604168245756,-0.285951425865278,0.206933763411982,-0.0317485616046209,-0.166463246591308,0.0441164004289064,-0.346732239238411,0.123921291989349,-0.148909904165376,-0.26572904985209,-0.116305552024841,0.283053058443602,0.0617942932022821,-0.0220029307596795,-0.281153284756526,-0.29494301718351,0.0186858687852978,0.105753107229566,-0.161826151358774,-0.285759016116441,-0.0697621406364949,-0.211543464403893,0.312358212415254,-0.0821761903940358,-0.161052757133843,0.191346818860459,-0.0295240555387101
-0.283227475523475,0.149435220559915,-0.158718530561314,-0.214203781153057,-0.025035548083761,0.136246329812214,0.291241758634341,-0.132643756672553,-0.0476379164266237,0.316379672932845,-0.235393435791312,-0.225129050853876,-0.224365243593399,0.257232326801767,-0.26963080549979,0.0625892783179118,-0.293202791662164,-0.158069193822834,-0.319141721734574,-0.219371961616336,0.118790065385556,0.0785736892668849,0.173618968301645,-0.184866564238669,-0.238833018250865,-0.0271688762757152,-0.232506579615303,-0.27576177150534,-0.310213890398991,-0.0663698264870866,-0.296328341275149,0.0740244766050484,0.0890187479304639,-0.0775329222845968,0.248723668070288,-0.326324570719323,0.106899938663085,0.146006238033051,0.250549635373189,-0.185845715883911,-0.253199619356903,0.19167567872793,-0.321766116587684,-0.131359115723848,-0.0422572518205364,0.17560966190771,0.0879106254674148,0.0466757983718816,0.230382780425507,-0.12381228883959,0.241458793912701,-0.187620301772235,0.149527238615873,0.236379896611584,-0.0523236052958876
0.0133075855156006,-0.17020217915581,-0.103833256312205,-0.0117006206815359,0.1713098098591,-0.327887810186438,0.184952044241143,-0.206077325761372,0.257894335247286,0.270675094933388,-0.27169253006665,-0.286943231077191,0.251957996459323,0.0772753290216806,-0.0562645057907534,-0.268417945406754,0.12882690922062,-0.084705779557756,0.197859355604101,0.0593451499775026,-0.221534840979994,-0.0725160698260984,0.0246612795984752,0.121253752644099,0.0776254646715733,0.353634275542798,0.197205073867145,-0.189487434384633,-0.0571353354214762,0.365435586652871,-0.155092893480392,-0.31536839363828,-0.235550305207597,0.0958061545397019,-0.119836100272643,0.028798834428703,0.322095586053877,0.130192446162875,0.358133032228318,0.116721503055983,-0.249607121331351,-0.235475974957571,-0.222920758584677,0.306517870827774,0.185119371531473,-0.0165429240482061,0.164752272587461,0.10956211920338,-0.222344872077757,0.00220415808243662,0.216951312920334,0.343004469051458,0.0657577076382918,-0.218864628390941,-0.0495240626448845
-0.298256708046671,-0.0170178288036053,0.244023702758428,0.0460455391922208,-0.123461858775416,-0.157270256944438,0.0436353699061781,0.12019809798389,0.0242053019374014,0.0683614671389386,-0.133754563273685,-0.304284140377162,-0.406725387671374,0.214866516984912,-0.116666230826631,-0.0424240191457015,-0.075971642125986,-0.26011001038094,0.30404263576059,0.195591561326528,0.243395560434422,0.340549944261829,0.0812729925512562,0.0111524214855665,0.157520661354547,0.125187050486382,-0.302750437922575,0.112936244842111,-0.232427309518554,0.210501172790649,0.0148039172522916,0.265942092612187,0.0298695416285784,-0.218751301828905,0.233738735845748,0.27260777773695,0.138875963544064,-0.0219618648730022,-0.0120761724791901,0.280011503924242,0.252670319128056,-0.195742175819531,-0.0968001659622297,0.347114695129212,0.174435654827098,-0.279058038413866,-0.121573599184574,0.234129777684382,0.0160522774569721,-0.121094806222319,-0.255625555822369,0.16709551533016,0.307463020343206,-0.281337178343933,-0.14243145414936
-0.246809479947835,0.245718264240779,-0.358398227317113,0.235088993100263,0.144967127833543,-0.120130446623946,-0.149908932553652,0.0235406522933742,-0.214053256367673,-0.19401943344746,0.0608199300767998,0.181068872668497,-0.052573283002438,-0.249143924095948,-0.0594272684915694,0.278663035383576,0.175565873192339,-0.142730890256498,-0.00103803037690598,-0.0986681526414134,-0.283653543354055,0.271950471533495,0.343197644431931,-0.26229211789785,-0.0514845822756975,-0.322315398723192,0.136044215943336,-0.243531916915475,-0.034831691156447,-0.292228052632035,-0.0966861434143944,0.0720343964098215,0.203949141405473,-0.161152378775394,0.140248233007342,-0.262757624237634,0.300657687032567,0.0939114809608253,0.0838301439043666,0.0235573300294272,0.0672091165564112,0.381445765903932,0.331096718463403,-0.0934399444313467,0.248639322514921,-0.13426263923903,-0.346869904497556,-0.153166945899999,-0.0449595323018597,-0.0156695786299728,0.0403636971854703,0.16296962199758,-0.279014668832598,0.309072816174034,-0.14489449423051
-0.0596716089223988,-0.208788993792962,-0.108810324020557,0.00663877977475733,-0.322201732209425,-0.223359358085689,0.245809219380681,-0.282814643164897,-0.0434844280880274,0.114609940948799,-0.158416459387286,0.209057995292577,0.281273688257806,0.35299443747068,0.310215903942341,0.167831927208152,0.203407323872531,0.122044188341421,-0.208328368378363,0.047571100216983,-0.101423411878585,-0.308485804266208,-0.13618131644204,0.0341464501257898,0.406772613104424,-0.0868226526502345,-0.205574124062055,-0.336102803328791,-0.22725211567474,-0.263810326184837,0.0540511528927137,-0.301937733285029,0.0690518934050934,-0.152692486323197,-0.20551625021053,-0.0361117051704254,0.140132329355677,-0.100398206310887,0.263222360081583,-0.0432935738435579,-0.184010674127735,0.169320193264391,0.260763478801088,0.200033998419366,-0.011201730967361,-0.201455911305518,-0.0236842877233691,0.279763648458416,0.0267856346140316,0.245632863339858,-0.0674738696925474,-0.282462536015326,-0.312558761169343,0.210850694444225,0.094624200424738
-0.112681093334419,0.231099280733707,0.0245002103133532,0.0492510875720296,0.216946482146438,0.21340342671519,0.148743818272592,0.0741970099067868,0.295662856607541,-0.191552975114083,-0.062039753326363,-0.291809396317917,-0.290420805568618,0.216542375401002,0.0730199916579232,0.128241203691881,0.172514502292872,-0.112061150099458,0.124596725687256,0.0946440655750422,-0.280010945485513,-0.0858055049480119,0.346856809539678,0.230110798878459,-0.320811359947826,0.254500339110455,0.0452940457640423,-0.301707556439634,0.0816539024733107,-0.229699510558879,0.275938779755133,0.115157957500361,-0.0617613295261187,-0.0203942411082663,-0.0841980674679882,-0.0759009273361504,-0.0893890594292063,0.314464202890493,-0.0914201029917772,-0.29530190871022,0.107032478318703,0.284207651391662,0.285796584532131,0.115751997441175,-0.214453986386997,-0.155462741701842,-0.371611298345422,-0.199352105777367,0.0160547536891107,-0.26132423189219,0.0108668899878182,0.313022298041992,-0.336194406811008,0.0290063222691469,0.0172887800589944
-0.0451101469035351,0.334791728665573,0.0827143286144226,0.041043988701767,0.116888292612383,-0.131638975467194,-0.192967187774121,-0.201669612913844,0.0173120901868505,-0.0829711914327354,0.30143805266807,-0.129765112287287,-0.181082062273946,-0.270545218694894,-0.0514978978068744,0.208849112145454,-0.299230948116046,-0.134395526490679,-0.325430936823226,0.217578456053871,-0.17901738168427,0.1116010253617,0.0704366007768234,-0.233507157200194,-0.176798654019878,-0.128958474615494,0.143987133637198,-0.32157198036686,-0.0135935527570662,0.314377215275933,-0.108844434215214,-0.296183554385653,-0.143766601888315,-0.217114281723749,0.083164261782025,0.0120718499933633,0.303867390332266,-0.2971182409223,0.086456893127811,-0.289174020181169,-0.332873728688583,0.0285199043185488,-0.293912471798479,-0.066574561632415,-0.127593082702048,-0.303182925091614,0.039937703567059,0.219286891489475,0.218437893401747,-0.0192338040580067,-0.225491707656325,-0.0676195364209508,0.0178836541620926,-0.295923626859989,0.0410095897407494
0.0948794139440546,-0.104906773280009,-0.0760514471033166,0.248471448241464,-0.0144223036044909,0.151152919662182,-0.287975843549914,0.150491949335568,0.216135427046781,-0.0334283488177185,-0.125508301671527,0.257536757805833,0.295682224852234,-0.253893706979124,0.250493044801335,-0.064064580917553,-0.0312814443690411,0.287830306786318,-0.326128211403542,0.20623950113732,0.121277566348446,-0.0180377927868337,-0.29429919961753,0.180961271673502,-0.1203707906417,0.152871925496034,0.0784883656734401,-0.223969339694576,0.267950404051075,-0.295693665543021,0.250755021069194,-0.151191384071899,-0.143783172156587,-0.306133570540911,0.0882014785630283,-0.00770909647804398,0.343639306371624,-0.154927868180514,-0.233362675254048,0.263160622480364,-0.174698804387671,-0.158303578490512,0.21929631584777,0.0825842993662351,-0.14672060060235,-0.276308941407634,-0.271746129850267,-0.145749119615884,-0.189667360486543,-0.194898107224962,0.0649749821965494,-0.275161417145927,0.13932813494855,-0.334447950999029,-0.227336900301348
0.0173335084658866,0.0279924315722158,0.301309757227826,0.243436128326676,-0.188768931556362,-0.0354266953329955,-0.151222058954479,0.188456573316207,-0.0881649826898057,0.327084760055815,-0.153831893658579,0.262761981428605,-0.294356975410298,-0.233431776312402,0.157648193408659,-0.160858983073106,0.235857213263152,-0.407274548052465,0.149508647590572,0.230167707187617,0.282840942226562,0.0069696748533531,0.171506150700645,-0.0130266029812465,0.284619395657389,-0.141645245287194,-0.141775827031236,-0.139048772779923,0.240057262633914,-0.14371975348888,-0.349310781663707,-0.27617501424542,-0.134639967671851,-0.0558601031212506,-0.132640234463098,0.0532968068475395,0.0920361352901752,0.025262147197128,-0.266861768983569,0.130475736741297,0.333752686908811,-0.138848662322964,-0.270838336995609,-0.244684067924439,-0.27555279130009,0.192082692346027,0.085839663637379,-0.0622571016106758,0.360616400066141,0.13557906055606,0.219495108152537,0.187312874540035,-0.0514269045840892,-0.158621284631529,0.180460919731627
0.0310523184892282,-0.293014317744034,0.184390488717792,-0.179967811967142,0.320170597121686,-0.107070456923026,0.175079390377548,0.133238789288299,0.215209147948717,-0.0564908925748799,-0.109108775761998,-0.189977811589074,0.184549777781789,0.238408445687645,0.042517117246576,-0.309807314404826,-0.323703058754113,0.0462147743809389,-0.213863496339256,-0.0620338590219119,-0.285320197093219,0.1922881571547,-0.316179484189346,-0.154522021391788,-0.31968928624121,0.35004857746295,0.169192957186842,-0.336766910420374,0.321080926471113,0.0495327895279444,-0.0730137280278929,0.167027358166514,-0.143722439415459,0.310992770080675,0.282905306761818,-0.231993779932164,-0.138426712453794,-0.200646108719973,-0.278662178281065,-0.0430372736403543,-0.181226693524784,0.229731780289576,0.209787284460141,-0.0485106778263282,-0.089047542124419,0.196289955676071,0.0927284569865238,-0.277527661660892,-0.0941874723908991,0.04334971121175,0.0882318557355454,0.149147801951351,-0.139465254761498,0.0556040883022046,0.0935632422447518
0.250174008639951,0.0180859475796516,-0.310054872157558,0.261120220735047,0.29020132817314,0.299334313208594,-0.333092408709014,0.258923168916017,0.0640419419461656,-0.235834556883551,-0.2953521916245,-0.114247557298901,0.156683998198597,0.193624382814307,-0.311740477030114,0.212536966980944,-0.143885784350526,0.132061424440118,0.0530920738838456,0.246793947120247,-0.198871702799571,0.214358478634058,0.137390670296653,0.0409480052970379,-0.190854174293213,0.111566498214702,0.0211761590345265,-0.203361760589648,0.131316931728247,-0.0655825491631448,-0.0997158557702113,-0.267768678644589,-0.289410019930513,0.219302828314918,0.285232197411999,0.0978523545722678,0.199403249564443,-0.0985878571038476,0.335904039661751,-0.342077101162651,0.0109667566797806,-0.0313908236058327,-0.00316230034354149,-0.140104659950887,-0.0729601373573114,-0.0953910596524341,0.295369635910556,-0.23622390938174,0.121080629209345,-0.225822884065759,0.141673626606201,0.0832013149608278,-0.130107033929047,0.132787141304817,0.346412828265279
-0.105095367465736,0.321995661132899,0.128492491942468,0.253558352852664,-0.226684609709026,0.191472263029521,-0.177826473719303,-0.0855803368616632,0.0840684152792286,0.263159845013347,0.334884959223392,-0.174714492481964,-0.241333518939565,-0.31047788877784,-0.247810000963164,0.063011933901553,0.266210758015241,0.101210560946016,-0.229855887546486,-0.0331028987675861,0.231358297426293,-0.170194878791575,0.147351093028991,-0.0936898974749586,0.247848870140845,0.0550080909926297,-0.0721437843408761,0.178779498072825,-0.127194288300289,0.286510910425332,0.293214662102407,0.209630682351789,-0.121514356920965,-0.161070452582634,0.304627363397859,0.209742404846577,-0.0522303551970527,0.0355979255976317,0.237756615256556,-0.218175320398813,-0.32721134684964,0.0922726917910474,0.145641498417419,0.0524994054841998,0.286891973375782,0.279815898145766,-0.0215086345046242,0.239361728534832,0.124751522294285,0.269077396072003,-0.0768161018976432,-0.0601983823385542,-0.309385722856096,-0.316756590883715,0.126701915277784
0.0367202557631677,0.14426351091723,0.244013893904368,-0.29579865328717,0.219144775967988,-0.0955089314973657,0.237948527992588,0.33637522213104,-0.252118723861343,-0.0458088187566683,-0.0568887158361379,-0.32110890601926,0.267528881357122,0.330467322491229,-0.258418193774071,0.178043208921228,0.203309344655464,-0.137127359467708,-0.220708295162427,-0.242845647939944,0.187977734709459,0.00610708955658801,0.31671293114069,0.201566365293572,0.0263571610904182,-0.0862534669741657,0.0277899967723714,-0.166720933982749,0.182579998512706,0.310079229572642,0.142065091027144,0.191291532291298,0.0114508741776942,0.0496909696207658,-0.0591741064777019,-0.140343636912275,-0.114976114285267,-0.139697206253927,0.0314352301934912,0.244755414264669,-0.280643259841034,0.257811233153786,0.282700382761498,-0.25678592924278,0.265577343954683,0.0387625508128857,-0.344822052223052,-0.04693392542953,-0.0292596517123409,0.0576113133611857,-0.119265291971237,0.0418710708331907,-0.1660331210756,-0.289899337752183,0.339815426713174
-0.313704429654152,0.178614498065568,-0.150222139864822,0.182023715706568,0.0485041602350135,-0.274078573813194,0.133239216262382,-0.397529947191167,0.270454296779294,0.220238801448168,-0.171137741258458,0.217753722016219,-0.352878611548962,0.0924917976889532,-0.221047898326483,-0.0600901404701742,-0.0900478434499805,-0.327825270253748,0.290822014296792,-0.130132528257669,-0.0608751142645916,0.141728397683416,0.196460810488477,0.0565563930173906,0.207115980965871,-0.166265933039587,-0.0474427344797489,-0.169762242739174,-0.138446542317216,0.380620107841767,0.324599155953731,-0.216280806319992,-0.101648399070627,0.0663021346705484,-0.30693569500911,0.117047227458072,-0.0560774580069618,-0.17846702450663,-0.000109905765759252,-0.11449331194533,-0.326058519991824,0.165112304593561,0.107594082521221,-0.124897694151366,-0.263799828036813,-0.133910022580505,-0.195026820983343,0.191858463131782,0.0526214068464005,0.326613938310633,0.0306910749744106,-0.145323336470398,0.116186538259208,-0.320275378602327,-0.122004510431639
0.0185316076082874,-0.311605457905546,0.0913361579932281,0.183192185304455,-0.0832738381823517,0.310320020879424,-0.262630515226463,0.264510182336008,0.0184036826167209,-0.196658223134481,-0.165655985928916,0.317109913632916,-0.285867702617195,-0.247717944691415,0.0358381507214679,-0.333123059355774,0.126663113521073,0.309771760618924,0.0311085982684282,0.23313970666685,-0.239343741334393,-0.0580791225395443,0.237923540426545,0.119968850789476,-0.24007248687337,0.0198121484289535,-0.0347281131171163,0.241026237270503,0.266774040230347,0.116766299680844,0.252316784671331,0.216184672726645,0.272662916175396,-0.0344681197607564,-0.17734011611548,0.030406489999334,-0.259854400940475,-0.0328685299777052,-0.204680517320399,0.298284839883348,-0.207111826334895,-0.256125454519402,-0.0639471766025884,0.193668094263244,-0.167730955361135,-0.164528355815067,-0.204489402469485,-0.166370231236716,-0.145546508882052,-0.289366875783354,-0.0642040174974095,0.295646303624943,0.230462100636313,0.10322331251922,0.176690017237716
-0.0446320912368054,0.263039149177894,0.0770035805626765,0.0303373974245754,0.324847147671321,0.171684991168495,-0.102831205671862,-0.319300805550034,0.253185230473457,0.0594257445334939,-0.112815146991951,0.296654273076594,-0.217439402186946,-0.138419111260659,0.223389944742139,0.0938235494541545,0.301758908808707,-0.244074929323694,-0.334105850282564,-0.185663346343034,-0.230714001949669,-0.0195338378553216,-0.0512532573323128,0.169560815176146,0.30163443147016,-0.192808077790473,-0.0392980239828218,-0.0532657958467566,0.24396965299973,0.179288991821434,-0.241333443209581,-0.209432194338428,-0.109383869414204,0.343460435074837,0.0135869572120793,0.169798955198717,0.0239364980028844,-0.319022900739378,0.0126562009419794,-0.330456250018999,0.307146497315848,-0.113540210612924,0.176106299736526,-0.0563066598712408,0.295340412043759,0.125702799331686,0.127763841213197,-0.191634082791725,-0.135133951391421,-0.237073683477849,0.267024636392229,0.160989593683438,0.108870442558503,0.178276014410103,0.30814356519163
-0.0286765978983635,0.172955713625804,-0.357492200439356,-0.0981350866928471,0.358928886891619,-0.145455016077674,-0.320817143110798,-0.238925834303551,-0.186752177600483,0.117781183448264,0.196805877127038,0.181943757029112,-0.0448419607070588,-0.0671305077614983,-0.0772267464019057,0.138997913094881,-0.0236185409963937,-0.249635599175919,-0.240564983380081,0.238447094147106,-0.221710822780277,-0.24373588891931,0.339335940819462,-0.19806592952261,-0.0849320887516993,-0.216170152768266,0.318229011115527,0.233311462618455,-0.0964867077231655,0.186844290599273,0.175327457418468,-0.246743435783891,0.216529900571157,0.033712061501253,0.0646010072055454,-0.248001754937003,0.171272468917554,0.0780804204961628,0.303525590218468,-0.226780688307347,0.118226248637876,-0.344561778428319,0.0484844127513002,0.215876962463672,-0.0048550500421848,-0.0446179467511327,0.123946577283468,0.350693612870715,-0.296439835888802,-0.129630590606433,-0.0816191308562806,-0.261785400140629,0.162895760134638,0.12440647792124,0.046681632316588
0.28963982114527,0.103848378684079,-0.0468843548756378,0.161212938459563,0.188099492488977,-0.148629813121105,-0.316440775992769,0.2523907208938,-0.248842512138862,-0.225608481867911,-0.0680577131378494,-0.0338314938649021,0.25238375342035,-0.264224740946145,-0.0558511747055391,-0.326377061350122,0.0251661373412508,-0.22471545783852,-0.335014779168087,0.224197446755816,-0.226414710505645,0.131967135295595,0.283059888126321,0.289151723923328,-0.00697511352392482,0.0547811394980861,-0.216635066926378,0.0388471805079112,-0.266281300827974,0.243076832693514,0.0964263157496457,0.183853693811493,-0.0792787109189392,0.302946254749332,0.0044359224550836,-0.298041545422276,-0.109140711422196,-0.152275867014585,0.280415754082709,0.30282111655747,0.0890168735247687,0.128005031398696,0.211759263968819,0.111122170759223,-0.276809813578713,0.0427505944531533,0.0621639567466729,0.177809454374528,0.0277236854545492,-0.160702282751694,0.273338071072393,-0.0197635021566241,0.317932426438293,0.181869304546006,-0.263938033695965
0.0184674371298035,0.0381669114009154,-0.205157290600676,0.0497420575659814,-0.110319194737473,0.132412125139456,0.17653554843184,-0.344433938968894,0.229018404796065,0.335308932144962,0.351552291641604,0.011489015617787,0.172751722665023,0.11640977445139,0.250945370797755,0.323546395404948,0.0161868133208221,-0.128073338037609,0.157179803722054,-0.225119379438931,0.231573088722512,0.0823206647787307,-0.151952475742006,-0.0508862646774688,-0.0983455347618337,-0.225214696746781,0.179201528855322,-0.167166268375157,0.319342503190226,0.237720416307994,-0.0640368151058263,0.1904835557569,-0.223917664072539,0.294581045550612,-0.0676945109087298,-0.334784894002676,0.274164482431416,-0.14495113409188,-0.253713666895056,-0.105427913162279,-0.223660897265982,-0.118214344460984,-0.12842644888967,0.280085001842138,-0.304039393555482,-0.145214090270895,-0.204355807493172,-0.0325838977101861,-0.141346687267282,0.031924895685119,0.265733980431507,-0.329412023484227,-0.335617193000658,0.120961676450384,-0.025835640189693
-0.204155028323709,-0.1553558837068,0.0354470995738734,-0.152120088315649,0.0120513003676864,-0.0139237829885275,-0.185947484368619,-0.19975471074749,-0.279208484283534,0.16549207896246,0.353120079125666,-0.0394238923653573,-0.245311971715709,-0.0900895504259128,0.31257996485792,0.0525364775336603,0.121534432642902,0.322399185244648,-0.218611216165034,0.185777527064842,0.200948072250972,-0.217868412910136,-0.247147425742891,-0.0487669425367798,0.149597847077628,0.283589248304563,-0.287123187080599,-0.0676091241044145,0.181568913180335,0.123707734690962,0.000751906490224586,-0.115908585918766,-0.241772400160097,-0.220510850285178,0.0394611848622492,0.0991546874733649,0.15981118333669,-0.300929624546343,0.12329584040795,-0.298637695866946,-0.188833031630135,0.205489591346953,-0.242456296171321,-0.243347286808989,0.0781127858355012,-0.176151707419601,0.230491211691427,-0.232107486867786,0.280404308780591,0.307620507494321,0.225326642996606,-0.189604750162131,0.301247812856377,0.25604972248954,0.0579613278723313
0.321028902260458,-0.0834079735733466,0.0486550586084635,-0.191802617459279,0.129826252374739,-0.339263743247294,0.334050660280857,0.00569919829801799,-0.183567936560201,0.0343907379538295,-0.214477574944613,0.234260012459438,-0.312893630704284,0.256649703632871,0.294280449372435,-0.100599159695163,0.193503864590777,-0.0958575175270765,-0.117651017404168,-0.0430674027889212,-0.233156611991205,0.0339588690817172,-0.257401405983702,-0.214925346571109,-0.141443639567239,0.0403768993150328,0.0799422618634164,0.289188649839391,-0.343816760256489,0.333492827122112,0.268854248176186,-0.0199873473034508,-0.319987347002668,0.15704707889792,-0.160632698491684,-0.297206699108674,0.0266068223095032,-0.0321380221210217,-0.0501049586312253,0.0326155998331889,0.0567600171977293,0.336420132381075,0.263756803143274,0.286361266954388,-0.189776802236483,-0.00943538191916733,-0.309376030371695,-0.0367573117464071,-0.069932815841734,-0.101486539425405,0.1689436288648,0.258445334659093,-0.228368085636164,-0.0948782732445953,-0.14543203832214
-0.27444652121341,0.096824937542024,-0.319786853281958,0.297032541721055,0.0241782324185274,-0.305433020539773,-0.236093243811806,-0.234377847461962,-0.189033131415452,-0.234486415069263,-0.328996356980086,0.108915272542125,-0.28580538760804,-0.150887879813338,0.220810078365694,-0.260720449214486,-0.230584179657614,-0.136861065618683,0.128608295375108,0.187312872043318,0.121394794483235,0.110682812073697,-0.119426453668299,0.0440290228772369,-0.0342579107415653,-0.232574603900344,0.319745391798592,0.099547452001745,-0.204818530834065,0.0991274365769249,-0.133551332167457,-0.208341451752787,-0.252593882386039,0.0597624344419594,0.188089504993064,-0.274623692489074,0.311100690482583,0.16986387186363,-0.159600915279911,0.247802526514739,-0.0368227976238451,0.0746244694111632,0.177060763856295,0.180990001192014,0.085775666066702,0.333746226884023,-0.297440736358918,-0.289314397218263,0.140372116109873,0.187265658533042,-0.0190170484264707,0.159238904671362,0.142128659182485,0.0948375091903039,0.277825158164409
0.293224227466053,0.125549062518997,-0.293957951718407,0.127633885814021,-0.152377534353473,0.0388039181180789,0.338940570725398,0.0870606012307271,0.141990298025807,0.235156321054393,-0.366364031904775,0.264835434703042,0.0220038371920089,0.193236834625904,-0.166217862718953,0.0569842554852434,0.116768083539666,-0.0798115709841012,-0.277535473382762,0.0650511800602848,-0.0476089426497002,0.243910320779572,-0.0230259400818708,-0.0386113175550376,0.273934656001316,-0.264608794199281,-0.2945378836948,-0.278236937771432,-0.0874558543748363,0.113917334899789,0.185619785288832,0.188331851106142,0.264819130645374,0.154692408679701,0.106118084812472,-0.074866679083854,0.217848789980897,-0.288589343612795,-0.19127416663234,0.107214425994333,-0.0810723313357208,0.234224588054395,-0.331116331336246,0.193494085533257,-0.0945447134276017,0.292819436672663,-0.169442710134926,0.207470343227464,0.0497418159824586,0.102400836815482,-0.316005177643829,-0.219046909555548,-0.0259505931173749,0.299821147193738,0.0988084159991355
0.00411458429131945,-0.179064698802374,-0.106067297915535,0.152367715756389,-0.342603458702041,0.203654804020807,0.231498498421797,0.269879410857588,-0.0195783188287633,-0.197617740852336,0.120495408799444,-0.25021408765908,-0.0066552808750124,0.196027987633057,-0.118520862504286,-0.134578242421566,0.104960198009755,0.298838471106301,0.226285262518658,0.0854425622067738,0.063642140813744,-0.328091221687921,0.100009762319087,0.165049593932489,-0.0892311697879972,-0.0260997797431569,-0.0491046003656517,-0.107396756869384,-0.0358540444349668,-0.0331950019185194,0.107280462789529,0.329650771944471,-0.318179927179637,-0.336704586723278,0.198191035886717,-0.192904475803595,0.0902320336784447,0.237052316606395,0.274589269024101,0.149289167397643,-0.0952676183735949,-0.253844068409544,0.142525412287974,0.143739328208978,0.232792376779193,0.209804905098334,-0.337595324272621,0.188618044153319,0.133686497136238,0.340379925753987,-0.206155035958998,-0.135291448790448,0.324645027818732,0.249248849815431,-0.0323592759436609
0.268735090861701,-0.347406171255844,-0.0796801311439087,-0.19296847365355,0.183496822127012,0.294935097852592,-0.306405523482333,-0.16070468925716,0.107387431054639,-0.0549544696310539,0.330650058195514,-0.160038128647247,-0.214512239101664,0.0050608464471588,-0.0426165997797291,-0.263455225394979,-0.173475387457169,0.113016054580643,-0.274305045076345,0.0690710658038961,0.0181103545603912,-0.142287705475521,0.0818309755978945,0.0242409965496706,0.0632752965912992,0.0473653383506892,0.214213336730017,-0.331826616898098,0.355434999841722,0.235742924825816,-0.0296441487264546,-0.12269391400394,-0.0665445416695701,-0.210217123724899,-0.0954294439091782,0.295194308042523,0.157594378698927,-0.298843664225845,-0.345291993536831,-0.11051831679615,-0.12689868780576,0.285026418598321,0.0300802008504902,-0.270602848807674,0.311328917791257,0.193434458999318,0.323431981096376,-0.16964092650694,-0.0392773528450695,-0.0683108517100873,-0.162742387947797,-0.154514790446469,0.270531912276721,0.151389382957031,0.0313041486420432
-0.243802988325748,-0.0355379599670637,0.0590753706505816,-0.245554986319497,0.214044384308347,-0.249966403175432,-0.00132265381215218,-0.0706703945877193,0.322591648727456,0.109313431159547,-0.0454045776138934,-0.0316642454748758,0.0890425893018036,0.148198124595375,0.152446810899691,0.332957473767275,-0.309445117841781,-0.278503703122446,0.0893555868089984,-0.0969940484426974,-0.281079851349126,0.117868758183775,-0.186695150482857,0.288263396040487,-0.127078738256526,-0.0334828706813948,-0.296349706190523,-0.300845450211474,-0.036337674133452,0.192939788901941,0.217607187335766,0.161391154404833,0.0928319970550084,0.18948351404517,0.0933501057496174,-0.00926288777276891,0.216704957447112,0.239670731482087,-0.312737233850192,0.313175957069941,-0.232525735946276,0.204107684066977,-0.0298307973652263,-0.176297646578501,-0.136810795389985,-0.245373753459281,-0.295063902201397,0.101118786067472,-0.264300950261023,0.258900135749988,-0.035592717077161,0.300592172879885,0.250765406589284,0.164805508586503,-0.260600075062053
-0.175862904492588,0.0677804256671201,0.0034567744524488,0.180427007555334,-0.134399652463047,0.0497097792597024,-0.111194205790896,0.109690410861387,-0.144958108955245,-0.211625200644235,-0.327325105361994,-0.379903474807802,-0.089001398608089,-0.122682116668225,-0.225104420924565,0.269729444493869,-0.307365343210278,-0.234030395909031,0.275010091171091,0.154693068408025,0.0366644993687677,0.116421108246275,-0.0338973564654562,-0.367691358137007,0.0515276414821638,-0.0971349098342322,-0.273668719381536,-0.272364027148145,0.12643142376515,-0.30806355195011,0.0251274254446816,0.284696359192334,-0.264909439594781,-0.0311672774588518,0.198305756067961,0.170822530508431,0.253201610632974,0.321025289253234,0.0195167572442551,-0.114187223634496,0.0648720737160764,0.10332948841754,0.253156111720336,0.176472414653594,0.0348524144844744,0.0893636083389812,0.182247472470615,0.196333222705929,0.321683044924564,-0.118812095791977,0.284059146375546,-0.355526280701579,0.0939962390828909,0.350846560029636,-0.0576818020206639
0.0612165247227283,0.0358850984017193,-0.221462334226889,-0.27523072976318,0.0529094451771475,-0.0519307191235515,0.0279470028696562,-0.0314245940695536,0.209622804375832,0.226425838938088,-0.0126864958562178,0.315816922413,-0.210323437298691,-0.275580313593482,-0.0987475265909541,0.198802765390597,0.209754454849302,0.235150263669876,-0.323890198189861,-0.37495489357207,-0.15573860723641,0.111263040712371,-0.188589685299363,-0.306326778095923,-0.290334891659965,0.171723528317616,-0.229114952838552,-0.233732637490313,-0.0660794009603755,0.232067170866563,0.0897317603034141,-0.38969251925896,-0.0948743722780539,0.20042785102295,0.0235981754971176,0.133016926014069,0.223958938945814,0.229460164416209,-0.0226097784554675,0.185965669135855,-0.24570050163995,-0.0407714935797083,0.177877285220015,0.104923152924303,-0.0909526493830088,0.202319430804083,0.179928302741742,-0.0113214116017201,-0.289878574651112,0.373838665593843,0.330032881482321,0.218722077807446,0.116293944258557,-0.0572271380339008,-0.0846476356833138
-0.0259272605939137,-0.00695111805179714,-0.251263973115828,-0.084881760465516,-0.148769389139613,0.277237925681427,0.0875023917799888,-0.323407220438535,0.22048289017503,0.116062055162659,-0.20705991353944,0.26642013768645,0.199809014805878,-0.133259924505287,0.312444814535927,-0.196446699848608,0.262199501226477,-0.0144965012398479,0.0455437018232086,-0.0385202608309778,0.298274555356277,-0.0842432682790327,0.239832542800247,-0.239440704106975,-0.0402601475301733,-0.048244041817256,0.0412792163141409,0.279041279126105,-0.0458488832451318,-0.176275059590738,-0.120866345076872,0.190178390638001,-0.0784553107915386,-0.0269204548811103,-0.252943828585188,-0.226062996605422,0.2525742886969,0.296508654808816,-0.304710397673434,-0.233200817701841,0.222059288962227,0.260717513375989,-0.114104697740584,-0.0364319928362907,0.327986616403911,-0.225596311205588,-0.206959782621639,0.231225395784344,0.224479944896477,0.270201912341646,0.286132298753823,0.0230297968761113,0.0346600477989906,-0.229441353232385,0.296919100462863
-0.159839595046198,-0.104129533590307,0.0141704677311911,0.331972255767805,0.00168553757783923,0.150154748066229,-0.204753586070461,0.144209090171924,-0.332918551021525,-0.203209337837909,0.310281164176598,0.120072504196047,-0.161912390095325,0.0831304768652476,-0.296425568101965,-0.0247025388445941,0.0429150143798104,0.306816379036503,0.0444620377819765,0.176562258426372,-0.257773920746915,-0.216165519018134,0.308790184862838,0.182780105433091,-0.335051439856843,0.075284117664954,-0.213132245422004,0.333778575190267,0.0118489254820952,0.0385217043795817,-0.225164600549739,-0.264579857952473,0.255404438204536,0.271675198790701,0.0791915657101012,-0.0916758336948259,0.287194211160345,0.213633609553166,0.102599986710412,-0.0565516937633527,-0.153280577249701,-0.281095351442493,0.126232689894542,0.182970538748822,0.0369704765559037,-0.216662946442921,0.0675028980926515,-0.0750156552124081,0.150464406206166,-0.170538468030649,-0.315990604574365,-0.114056361635874,0.333467892466889,-0.332536192446316,-0.103850376160008
0.0664224931730282,0.114407648427102,-0.116116150681613,0.330191864725018,0.0447514923397209,-0.190869908340142,0.027874012684125,-0.331179556884214,0.205446603547702,-0.303267858007818,-0.185142921879345,-0.239232336358924,0.232529272532569,0.0140681591354196,-0.253142065030872,0.0188175816004294,-0.273893285639556,0.0226846481226742,-0.309981950112254,0.149611338221006,-0.114656104225781,-0.218050507229039,0.276712105701237,0.237474386268293,-0.241360056728654,-0.127597184322077,-0.0825847915835044,0.119189411071077,0.262331597998083,-0.0893213297861209,-0.145462495515799,-0.221349460207407,-0.161405464738311,-0.0842864746216273,0.123766056689719,-0.109098505084955,0.164512286661764,-0.1130869251582,-0.182881282233593,-0.310335239156678,0.0335462922933044,-0.0100647988547256,0.344219329024391,-0.331940943027881,-0.299111392689871,0.121076043077904,0.125073442129743,0.267082629753068,-0.313246857978755,-0.162201753240874,0.115072908728937,-0.246377521807104,0.23850286677059,0.0641725389610981,0.280806160642147
0.174492774139341,-0.10051145997729,-0.0633648421911652,0.269158687446688,-0.0552692648618508,-0.139193239666069,0.198761354035889,-0.22433764828026,0.28662277106492,0.227488681214938,-0.234117330775301,0.0983874309083315,0.306867447234387,0.230683580649553,-0.272518952101111,-0.0101082040772096,-0.181029467709436,0.170304669444038,-0.216121249150604,-0.144805745732597,-0.00788314720235401,0.0527263912071505,-0.141677500511812,0.3204660226859,-0.006762578119917,0.31898881310823,-0.275929097853496,-0.214225115498398,0.242004839951404,0.265219231428961,-0.166572590927659,0.0558707415088518,0.248615312518807,0.0746238452382402,0.276208587225532,0.256228258851515,-0.0312305375492466,-0.0340256859872063,0.299493890058606,-0.00333725876314465,-0.256949016978412,-0.198767142694825,-0.112633615116159,-0.0667035991873194,0.23942103080494,-0.192285249240071,0.167770348102823,0.193565423028579,-0.112421579626303,0.312704907217589,0.166863940910213,0.0145402775096582,0.351017936466644,0.131759687029817,-0.0879971769756225
-0.259858634813763,0.295174202152856,-0.195150516797786,0.338529072206554,-0.310726193902831,0.136222645605902,0.141718577780802,0.0418513008714193,0.224841716210789,0.26939266433798,-0.347385087995669,-0.283702763820205,-0.0563190150073828,-0.0355263284614216,-0.171679874577039,-0.0642519650059499,-0.157255909172014,0.327634395840844,-0.0666020727022832,-0.350071766626369,-0.194099414818743,0.173738247742388,0.156436337399356,-0.126025317634213,0.087614351486343,0.0817314145323905,-0.242437236740382,0.304115592589532,0.235468068837454,0.131038497516544,0.0203556596362434,0.329656963867297,-0.0965417545054152,0.0181002030778725,0.0466719295173503,-0.162127032230881,-0.151153097535302,-0.062870913079609,0.0962040885361799,-0.343825916611225,-0.0590685756872531,-0.120160157860386,0.0241572202890887,-0.0354993432058052,-0.141069650502646,-0.299632486242331,-0.0202731894890425,-0.27728501927346,0.191732489245772,-0.318995760474301,-0.234438423533632,-0.122566132942731,0.189041001417728,0.351223247077035,0.101745913123308
-0.0242597095017102,0.0190723718576933,0.312943322772601,0.0480517903230556,-0.194081976564633,0.138844182203281,0.325457587164402,0.331402388653872,0.106315066651785,0.318285455013907,0.378502785766707,0.00874961592035622,-0.346966645542191,-0.137986776301181,0.00724701934803548,-0.252152810555961,-0.279610884628723,-0.251001025619682,0.151445046206238,-0.12384547793387,0.352686801276796,-0.270351068660503,0.249296549811299,-0.108067613472502,-0.271585755856426,-0.233617934884924,-0.170930332191454,-0.0492405723201816,-0.0771919837668009,0.12526524658935,0.120058303003972,-0.278846874717021,-0.090362060296654,0.163716760810473,0.141267321732135,0.101082408615308,0.206631999544985,0.012804001761324,0.159111607855437,-0.074610063441495,0.159615953312203,-0.195802737081715,-0.150467195409478,-0.0404150742685488,0.211646583941906,-0.246148955680895,0.213056315915772,-0.0542490353071958,0.135676835531145,-0.243025291102526,-0.19168276339329,0.299327094190968,-0.294680430601408,-0.151035980728579,0.21636307099615
0.136386430899571,0.236827403693882,0.281079849328531,-0.0507323842985128,-0.328586420048308,0.248306873212549,0.230594209667102,0.287589176382462,0.148609118986391,0.176251162428615,0.0196599182977268,-0.24507451040765,0.252383851504708,-0.300340849520413,-0.0754843183100008,0.121170942997894,-0.146296763498131,0.169747887840242,0.312220584386404,-0.30365305709239,0.118382412299987,-0.324682393648791,-0.117456870386661,-0.081577345576959,-0.234588797387692,0.306649215281467,-0.153218254671667,0.0637100397205696,0.0567089530472505,-0.316301735645671,0.293988869548709,-0.0598637907087558,0.237130321268747,-0.223907941716121,0.254295477120861,-0.0611881412278006,-0.21370690619924,0.143613915800806,0.0512166098984223,-0.284763783265645,-0.0348650785893595,-0.0600365200582151,0.0729705482607937,-0.161972957203057,-0.0645503921643919,0.00198831391911767,-0.266542364746489,-0.0444985641844538,0.101678993310912,0.167200660380517,-0.163682608176283,0.136032438907837,0.247945968202363,0.29517316565426,0.254209858484615
0.018822263306139,-0.287636640209189,-0.288184469850937,-0.0797688520619668,0.264114761575528,-0.277114716908269,-0.0256469966997448,0.117904084856786,0.258523088668386,-0.207039041220289,-0.191074508754654,-0.0735919065554282,0.0332735614788138,-0.321114409897638,0.319248754811917,0.00459319903556435,0.241526653305661,0.293788616251064,0.126174114527054,0.273096188049587,0.13022948062761,0.259546622698772,0.168953199407283,0.289491927180193,-0.32237663571596,0.0532647863230502,0.12472747027479,0.322717524396973,-0.226742000508821,-0.250655026487994,0.225062519929079,0.181493985907845,-0.13824638282303,-0.062578316587189,-0.280631588902626,-0.25674496338447,0.284706904461459,-0.145878895692499,0.152570301585834,0.161590230145959,0.0889368283027806,-0.149811616336723,-0.284066904071006,0.16460636917721,-0.156317522447602,0.247357012887316,-0.128948705554191,-0.0692420832396406,0.166249991629035,0.00714914860011128,0.121446450762053,0.180548131711309,-0.156336035664589,-0.185472826187691,0.127340735088357
0.212467670125007,0.067142031587151,-0.309223422411558,0.16700605031202,-0.00889260847254373,-0.287937955600808,-0.100518613278369,-0.230252330327672,-0.351347469398902,-0.230329903440635,-0.254362045023934,-0.229813709474793,0.263702964689802,-0.104042077076275,0.257724405309496,-0.0596671010322494,0.22363023602245,-0.0746094809821921,-0.21400753275081,-0.0516078670113848,-0.104297178460813,0.356013139645599,0.20408212913055,0.154909894465528,0.0411760575144491,0.0120200818850598,-0.294059767746245,0.325272109751643,-0.0759181402665294,-0.282703050562661,-0.285892583557044,-0.144310019752443,-0.0184674696079824,0.366452889645187,0.182457692806065,0.0899894123043934,0.0452494618218174,-0.333762572791943,0.18008678370322,0.158207429664052,0.0498610899357702,0.297438015243094,0.257273242247911,-0.25280042137149,0.0656374219879478,0.167263426960745,-0.103511407138226,0.160865361108494,0.282550787014491,-0.194720928975225,-0.167434926771902,-0.191555517541732,0.119920093007161,-0.0759662603771793,-0.174021211706166
0.341831341628455,-0.0836551070318623,0.020448309053147,-0.0832094012114999,0.173366947783579,-0.0130942221380882,0.0758424651607761,0.277159008813205,-0.221939345261764,-0.224205384722333,0.198413043138252,0.272823216095133,-0.248005467201297,-0.184099405663505,0.117122554951418,-0.310657322801136,0.0408659226695845,0.245325113013347,0.058170855018999,-0.0295387234101791,-0.332550815989615,-0.16499193552947,-0.301869370012768,0.192117170014765,0.284000510142515,-0.0783863092463522,-0.00741704042866779,-0.114496688227866,0.241650682006594,0.128175494586472,0.11892866598218,0.347738275773494,0.0170486572992954,0.189358446495969,0.23980163373096,-0.327720211649287,0.00365071159004313,-0.142106761899652,-0.296644884574145,-0.301686265501336,-0.0457924240385731,0.352912533345518,-0.00770694792674227,0.267606753021919,-0.323539121715337,-0.111832800159756,-0.169756585440826,-0.153780894862511,0.0645480212171786,0.142612639064568,0.136303998527284,0.289085611077899,-0.150478313341483,0.219321834175599,-0.157314562314763
-0.325938751454051,0.0612627731807466,-0.147790768668609,0.0556040348191688,0.0428485718138198,0.343008763653721,-0.126526751715714,-0.181690010888311,-0.106144178635459,-0.268542730401038,0.0811085436798764,0.308433304305944,0.248642385125233,-0.350742731699622,-0.27375115099967,0.0847797579129166,0.0126988747348562,-0.051146158451223,0.247551986257685,-0.154205529342437,0.0296878948608401,-0.0534441975595334,-0.168795731725564,0.214610866679973,-0.171426532016906,-0.217830839194788,-0.232234070171493,-0.156402440873137,0.238528817918732,-0.0877183190937473,0.00993774929262878,0.293859202476585,-0.254494893756858,0.054100854117186,0.349125288983615,0.176926947031538,0.13250234727309,-0.180289074859026,0.26917278662113,0.110482637015354,0.200340428826405,0.344925291874731,0.121989811358527,0.199198805348371,-0.054032404639933,0.196583453695082,0.170268583467564,-0.0200420000944836,0.337025422571273,-0.322981634210413,0.33329036531132,0.102519423694917,-0.0518348594943459,0.00287873081574453,-0.320691725557504
